Layer: model.0.weight
Shape: torch.Size([128, 187])
Values:
[['0.2497558593750000000000000000000', '-0.0770263671875000000000000000000', '-0.0928955078125000000000000000000', '-0.0636596679687500000000000000000', '0.0749511718750000000000000000000', '-0.0102233886718750000000000000000', '0.1113891601562500000000000000000', '-0.0108489990234375000000000000000', '-0.0159606933593750000000000000000', '-0.0637207031250000000000000000000', '-0.0949707031250000000000000000000', '-0.0275726318359375000000000000000', '-0.1513671875000000000000000000000', '-0.0517272949218750000000000000000', '-0.0579223632812500000000000000000', '-0.0934448242187500000000000000000', '-0.0274658203125000000000000000000', '0.0229949951171875000000000000000', '0.0467224121093750000000000000000', '-0.0175170898437500000000000000000', '0.0456542968750000000000000000000', '0.1341552734375000000000000000000', '0.0544738769531250000000000000000', '0.0116119384765625000000000000000', '0.1173095703125000000000000000000', '-0.0157470703125000000000000000000', '0.0242919921875000000000000000000', '0.0437622070312500000000000000000', '0.0013132095336914062500000000000', '0.0480346679687500000000000000000', '-0.0388488769531250000000000000000', '-0.0867919921875000000000000000000', '-0.1021118164062500000000000000000', '-0.0617065429687500000000000000000', '-0.0154953002929687500000000000000', '-0.0249328613281250000000000000000', '-0.0626831054687500000000000000000', '-0.0614624023437500000000000000000', '0.0541687011718750000000000000000', '-0.0458984375000000000000000000000', '0.0462646484375000000000000000000', '0.1063842773437500000000000000000', '0.0935668945312500000000000000000', '-0.0003535747528076171875000000000', '0.0859985351562500000000000000000', '0.0636596679687500000000000000000', '0.0149612426757812500000000000000', '0.0736694335937500000000000000000', '0.0761108398437500000000000000000', '-0.0197143554687500000000000000000', '0.0043334960937500000000000000000', '-0.0114517211914062500000000000000', '0.0175170898437500000000000000000', '-0.0205993652343750000000000000000', '0.0339660644531250000000000000000', '-0.0231018066406250000000000000000', '-0.0082168579101562500000000000000', '0.0014505386352539062500000000000', '-0.0305175781250000000000000000000', '-0.0800170898437500000000000000000', '0.0470581054687500000000000000000', '0.0167694091796875000000000000000', '-0.0459899902343750000000000000000', '0.0464477539062500000000000000000', '-0.0687866210937500000000000000000', '-0.0059089660644531250000000000000', '-0.0035419464111328125000000000000', '0.0080566406250000000000000000000', '0.0162353515625000000000000000000', '-0.0255126953125000000000000000000', '-0.0494689941406250000000000000000', '-0.0750732421875000000000000000000', '-0.0405273437500000000000000000000', '-0.0980224609375000000000000000000', '-0.0994873046875000000000000000000', '-0.0756225585937500000000000000000', '-0.0878295898437500000000000000000', '0.0310363769531250000000000000000', '-0.0747070312500000000000000000000', '0.0451049804687500000000000000000', '-0.0550537109375000000000000000000', '-0.0417785644531250000000000000000', '-0.0166320800781250000000000000000', '0.1004028320312500000000000000000', '-0.0271148681640625000000000000000', '-0.0253906250000000000000000000000', '-0.0105056762695312500000000000000', '0.0066146850585937500000000000000', '0.0068931579589843750000000000000', '0.0413818359375000000000000000000', '-0.0015592575073242187500000000000', '-0.0375061035156250000000000000000', '-0.0223236083984375000000000000000', '-0.0302276611328125000000000000000', '0.0108413696289062500000000000000', '0.0774536132812500000000000000000', '0.0286865234375000000000000000000', '0.0594177246093750000000000000000', '-0.0140991210937500000000000000000', '0.0723266601562500000000000000000', '0.0460815429687500000000000000000', '0.0897216796875000000000000000000', '-0.0219879150390625000000000000000', '-0.0005359649658203125000000000000', '-0.0428161621093750000000000000000', '-0.0422058105468750000000000000000', '-0.0619506835937500000000000000000', '-0.0348205566406250000000000000000', '0.0042304992675781250000000000000', '0.0523681640625000000000000000000', '0.0261688232421875000000000000000', '0.0290832519531250000000000000000', '0.0138092041015625000000000000000', '-0.0084991455078125000000000000000', '-0.0012741088867187500000000000000', '-0.0341186523437500000000000000000', '0.0157318115234375000000000000000', '-0.0080108642578125000000000000000', '0.0810546875000000000000000000000', '-0.0083160400390625000000000000000', '-0.0592651367187500000000000000000', '0.0205841064453125000000000000000', '-0.0415344238281250000000000000000', '-0.0493164062500000000000000000000', '-0.0179901123046875000000000000000', '-0.0355224609375000000000000000000', '-0.0176849365234375000000000000000', '-0.0265960693359375000000000000000', '0.0566711425781250000000000000000', '-0.0305786132812500000000000000000', '-0.0451965332031250000000000000000', '-0.0013246536254882812500000000000', '0.0135192871093750000000000000000', '0.0038681030273437500000000000000', '0.0040588378906250000000000000000', '-0.0439147949218750000000000000000', '0.0339050292968750000000000000000', '-0.0135726928710937500000000000000', '0.0558776855468750000000000000000', '0.0322875976562500000000000000000', '-0.0311737060546875000000000000000', '-0.0366210937500000000000000000000', '-0.0514221191406250000000000000000', '0.0165710449218750000000000000000', '-0.0734252929687500000000000000000', '-0.0232391357421875000000000000000', '0.0437011718750000000000000000000', '0.0327148437500000000000000000000', '-0.0576477050781250000000000000000', '0.0053977966308593750000000000000', '0.0452575683593750000000000000000', '-0.0451660156250000000000000000000', '-0.0541687011718750000000000000000', '-0.0041313171386718750000000000000', '0.0232696533203125000000000000000', '-0.0556945800781250000000000000000', '0.0372619628906250000000000000000', '-0.0834350585937500000000000000000', '0.0583801269531250000000000000000', '-0.0321655273437500000000000000000', '0.0284576416015625000000000000000', '-0.0081405639648437500000000000000', '0.0228118896484375000000000000000', '0.0589904785156250000000000000000', '-0.0173645019531250000000000000000', '-0.0842285156250000000000000000000', '-0.0490722656250000000000000000000', '-0.0808715820312500000000000000000', '-0.0498962402343750000000000000000', '-0.0240631103515625000000000000000', '-0.0236663818359375000000000000000', '0.0346069335937500000000000000000', '0.0245666503906250000000000000000', '0.0562438964843750000000000000000', '-0.0769653320312500000000000000000', '-0.0171813964843750000000000000000', '-0.1222534179687500000000000000000', '-0.0145339965820312500000000000000', '-0.1198120117187500000000000000000', '-0.1130371093750000000000000000000', '-0.0986938476562500000000000000000', '-0.1409912109375000000000000000000', '-0.0556640625000000000000000000000', '-0.0685424804687500000000000000000', '-0.1085205078125000000000000000000', '-0.0957641601562500000000000000000', '-0.0479736328125000000000000000000'], ['0.0344848632812500000000000000000', '0.1433105468750000000000000000000', '-0.0132522583007812500000000000000', '-0.0721435546875000000000000000000', '0.0132980346679687500000000000000', '-0.0084304809570312500000000000000', '0.0187988281250000000000000000000', '-0.0673217773437500000000000000000', '-0.0178222656250000000000000000000', '0.0715942382812500000000000000000', '0.1185302734375000000000000000000', '0.1052246093750000000000000000000', '0.0217742919921875000000000000000', '-0.0769653320312500000000000000000', '-0.0146484375000000000000000000000', '-0.0520324707031250000000000000000', '-0.0172729492187500000000000000000', '-0.0813598632812500000000000000000', '-0.0384826660156250000000000000000', '-0.1002197265625000000000000000000', '-0.0946655273437500000000000000000', '0.0055809020996093750000000000000', '-0.0706176757812500000000000000000', '-0.0472106933593750000000000000000', '-0.0726318359375000000000000000000', '0.0510253906250000000000000000000', '-0.0103607177734375000000000000000', '0.0734863281250000000000000000000', '0.0390319824218750000000000000000', '-0.0214996337890625000000000000000', '0.0053901672363281250000000000000', '0.0894165039062500000000000000000', '0.0416259765625000000000000000000', '0.0912475585937500000000000000000', '0.0134735107421875000000000000000', '0.0007882118225097656250000000000', '-0.0346374511718750000000000000000', '0.0693359375000000000000000000000', '0.0481872558593750000000000000000', '-0.0203399658203125000000000000000', '0.0592346191406250000000000000000', '-0.0308990478515625000000000000000', '-0.0664672851562500000000000000000', '0.0172424316406250000000000000000', '-0.0947265625000000000000000000000', '-0.0425109863281250000000000000000', '-0.0366821289062500000000000000000', '0.0048217773437500000000000000000', '-0.0672607421875000000000000000000', '-0.0457763671875000000000000000000', '0.0114898681640625000000000000000', '0.0031433105468750000000000000000', '-0.0013418197631835937500000000000', '0.0703125000000000000000000000000', '0.0413208007812500000000000000000', '0.0108413696289062500000000000000', '0.1171264648437500000000000000000', '0.0690307617187500000000000000000', '0.0237274169921875000000000000000', '0.1116333007812500000000000000000', '0.0690917968750000000000000000000', '0.0561828613281250000000000000000', '-0.0048141479492187500000000000000', '0.1004028320312500000000000000000', '-0.0403442382812500000000000000000', '0.0531921386718750000000000000000', '0.0013675689697265625000000000000', '0.0125732421875000000000000000000', '-0.0018558502197265625000000000000', '0.0497741699218750000000000000000', '-0.0244445800781250000000000000000', '0.0279998779296875000000000000000', '0.0566711425781250000000000000000', '0.0380554199218750000000000000000', '-0.0392761230468750000000000000000', '-0.0731811523437500000000000000000', '-0.0906372070312500000000000000000', '-0.0524597167968750000000000000000', '-0.0578308105468750000000000000000', '0.0230255126953125000000000000000', '0.0206146240234375000000000000000', '0.0003113746643066406250000000000', '0.0272521972656250000000000000000', '0.0422058105468750000000000000000', '0.0415039062500000000000000000000', '-0.0103302001953125000000000000000', '0.0330200195312500000000000000000', '-0.0935668945312500000000000000000', '0.0224914550781250000000000000000', '0.0128860473632812500000000000000', '-0.0748901367187500000000000000000', '-0.0116271972656250000000000000000', '-0.0225982666015625000000000000000', '0.0232238769531250000000000000000', '-0.0317687988281250000000000000000', '-0.0284576416015625000000000000000', '-0.0145111083984375000000000000000', '0.0038452148437500000000000000000', '-0.0086517333984375000000000000000', '-0.0041770935058593750000000000000', '-0.0153961181640625000000000000000', '0.0351562500000000000000000000000', '-0.0358581542968750000000000000000', '-0.0175323486328125000000000000000', '-0.0408630371093750000000000000000', '0.0341796875000000000000000000000', '0.0051651000976562500000000000000', '-0.0281677246093750000000000000000', '0.0333251953125000000000000000000', '-0.0136337280273437500000000000000', '0.0496520996093750000000000000000', '0.0142745971679687500000000000000', '-0.0772705078125000000000000000000', '-0.0656127929687500000000000000000', '-0.0028781890869140625000000000000', '-0.0516662597656250000000000000000', '-0.0296325683593750000000000000000', '0.0128631591796875000000000000000', '-0.0327453613281250000000000000000', '0.0551757812500000000000000000000', '-0.0701293945312500000000000000000', '0.0591430664062500000000000000000', '0.0171051025390625000000000000000', '0.0426940917968750000000000000000', '0.0226440429687500000000000000000', '-0.0044937133789062500000000000000', '-0.0089340209960937500000000000000', '0.0170745849609375000000000000000', '0.0183105468750000000000000000000', '0.0844116210937500000000000000000', '0.0178833007812500000000000000000', '0.0186462402343750000000000000000', '0.0364685058593750000000000000000', '0.0557861328125000000000000000000', '0.0397644042968750000000000000000', '-0.0124816894531250000000000000000', '-0.0262298583984375000000000000000', '0.0403747558593750000000000000000', '0.0276641845703125000000000000000', '0.0515441894531250000000000000000', '0.0453186035156250000000000000000', '0.0855712890625000000000000000000', '0.0357055664062500000000000000000', '0.0708618164062500000000000000000', '0.0578918457031250000000000000000', '0.0015344619750976562500000000000', '0.0495605468750000000000000000000', '0.0592651367187500000000000000000', '-0.0345458984375000000000000000000', '-0.0288391113281250000000000000000', '0.0498657226562500000000000000000', '-0.0021038055419921875000000000000', '-0.0445251464843750000000000000000', '-0.0631103515625000000000000000000', '0.0727539062500000000000000000000', '-0.0129776000976562500000000000000', '-0.0434265136718750000000000000000', '-0.0132293701171875000000000000000', '-0.0465698242187500000000000000000', '0.0446166992187500000000000000000', '0.0750732421875000000000000000000', '-0.0380554199218750000000000000000', '-0.0337524414062500000000000000000', '-0.0580749511718750000000000000000', '0.0223846435546875000000000000000', '0.0130767822265625000000000000000', '0.0388793945312500000000000000000', '-0.0457153320312500000000000000000', '-0.0263519287109375000000000000000', '0.0271759033203125000000000000000', '-0.0648803710937500000000000000000', '0.0150070190429687500000000000000', '-0.0630493164062500000000000000000', '0.0151290893554687500000000000000', '0.0169982910156250000000000000000', '-0.0406494140625000000000000000000', '-0.0307312011718750000000000000000', '-0.0706176757812500000000000000000', '-0.0090255737304687500000000000000', '-0.0765991210937500000000000000000', '-0.1357421875000000000000000000000', '-0.0649414062500000000000000000000', '-0.0150527954101562500000000000000', '-0.0869750976562500000000000000000', '-0.0897827148437500000000000000000', '-0.0939331054687500000000000000000', '-0.2274169921875000000000000000000'], ['0.0103530883789062500000000000000', '-0.0373535156250000000000000000000', '0.1817626953125000000000000000000', '0.2243652343750000000000000000000', '0.1175537109375000000000000000000', '0.2237548828125000000000000000000', '0.3110351562500000000000000000000', '0.2193603515625000000000000000000', '0.2009277343750000000000000000000', '0.1667480468750000000000000000000', '0.0529479980468750000000000000000', '0.0072555541992187500000000000000', '-0.1111450195312500000000000000000', '-0.1920166015625000000000000000000', '-0.1022949218750000000000000000000', '-0.1397705078125000000000000000000', '-0.0646362304687500000000000000000', '-0.0777587890625000000000000000000', '-0.0927124023437500000000000000000', '-0.0860595703125000000000000000000', '-0.0986938476562500000000000000000', '0.0209045410156250000000000000000', '0.0048446655273437500000000000000', '-0.0294494628906250000000000000000', '-0.0824584960937500000000000000000', '-0.0426940917968750000000000000000', '-0.1067504882812500000000000000000', '-0.0958251953125000000000000000000', '-0.0102539062500000000000000000000', '-0.0726318359375000000000000000000', '-0.0463256835937500000000000000000', '0.0253295898437500000000000000000', '-0.0033321380615234375000000000000', '-0.0780639648437500000000000000000', '0.0053863525390625000000000000000', '-0.0143508911132812500000000000000', '0.0612487792968750000000000000000', '0.0938720703125000000000000000000', '0.0902709960937500000000000000000', '0.1084594726562500000000000000000', '0.1130981445312500000000000000000', '0.0202789306640625000000000000000', '0.0965576171875000000000000000000', '0.0032577514648437500000000000000', '-0.0739135742187500000000000000000', '0.0151748657226562500000000000000', '0.0312500000000000000000000000000', '0.0202026367187500000000000000000', '-0.0844726562500000000000000000000', '0.0258941650390625000000000000000', '0.0090942382812500000000000000000', '-0.0803833007812500000000000000000', '-0.0053787231445312500000000000000', '0.0101318359375000000000000000000', '0.0311431884765625000000000000000', '-0.0715332031250000000000000000000', '0.0537719726562500000000000000000', '-0.0244140625000000000000000000000', '0.0485229492187500000000000000000', '-0.0286254882812500000000000000000', '-0.0515136718750000000000000000000', '-0.0344238281250000000000000000000', '0.0504455566406250000000000000000', '0.0422363281250000000000000000000', '-0.0679321289062500000000000000000', '-0.0634765625000000000000000000000', '-0.0282592773437500000000000000000', '-0.0444335937500000000000000000000', '0.0117111206054687500000000000000', '-0.0350952148437500000000000000000', '-0.0520629882812500000000000000000', '0.0255279541015625000000000000000', '0.0508422851562500000000000000000', '0.0747680664062500000000000000000', '0.0012311935424804687500000000000', '-0.0057449340820312500000000000000', '-0.0323486328125000000000000000000', '-0.0639648437500000000000000000000', '0.0643920898437500000000000000000', '0.0075225830078125000000000000000', '-0.0128326416015625000000000000000', '0.0052947998046875000000000000000', '0.0436706542968750000000000000000', '-0.0113677978515625000000000000000', '-0.0448303222656250000000000000000', '-0.0180358886718750000000000000000', '-0.0581665039062500000000000000000', '0.0150222778320312500000000000000', '0.0522460937500000000000000000000', '-0.0031356811523437500000000000000', '0.0336303710937500000000000000000', '-0.0468750000000000000000000000000', '0.0012159347534179687500000000000', '0.0557250976562500000000000000000', '0.0838623046875000000000000000000', '0.0762939453125000000000000000000', '0.0833740234375000000000000000000', '-0.0096969604492187500000000000000', '0.1085205078125000000000000000000', '-0.0315246582031250000000000000000', '0.0388183593750000000000000000000', '0.0408020019531250000000000000000', '-0.0282897949218750000000000000000', '0.0342407226562500000000000000000', '-0.0626831054687500000000000000000', '-0.0167388916015625000000000000000', '-0.0222473144531250000000000000000', '0.0817260742187500000000000000000', '0.0325622558593750000000000000000', '0.0425109863281250000000000000000', '0.0225830078125000000000000000000', '-0.0230712890625000000000000000000', '0.0463867187500000000000000000000', '0.0354919433593750000000000000000', '-0.0207977294921875000000000000000', '0.0411376953125000000000000000000', '0.0503234863281250000000000000000', '-0.0574340820312500000000000000000', '-0.0221710205078125000000000000000', '-0.0326538085937500000000000000000', '0.0240478515625000000000000000000', '-0.0567932128906250000000000000000', '0.0460205078125000000000000000000', '-0.0138854980468750000000000000000', '0.0476074218750000000000000000000', '-0.0559997558593750000000000000000', '-0.0282592773437500000000000000000', '0.0682983398437500000000000000000', '0.0043678283691406250000000000000', '0.0609741210937500000000000000000', '-0.0012426376342773437500000000000', '-0.0343017578125000000000000000000', '-0.0003809928894042968750000000000', '0.0463867187500000000000000000000', '0.0203857421875000000000000000000', '-0.0672607421875000000000000000000', '-0.0425720214843750000000000000000', '0.0509338378906250000000000000000', '0.0545349121093750000000000000000', '-0.0275421142578125000000000000000', '0.0297851562500000000000000000000', '-0.0258941650390625000000000000000', '0.0651245117187500000000000000000', '0.0116348266601562500000000000000', '0.0362243652343750000000000000000', '-0.0366821289062500000000000000000', '-0.0408325195312500000000000000000', '-0.0510559082031250000000000000000', '0.0049247741699218750000000000000', '-0.0391540527343750000000000000000', '0.0555114746093750000000000000000', '-0.0700683593750000000000000000000', '0.0411376953125000000000000000000', '-0.0103302001953125000000000000000', '-0.0205993652343750000000000000000', '0.0121994018554687500000000000000', '-0.0029087066650390625000000000000', '-0.0053672790527343750000000000000', '-0.0428771972656250000000000000000', '-0.0311279296875000000000000000000', '0.0842895507812500000000000000000', '0.0234680175781250000000000000000', '-0.0045127868652343750000000000000', '0.0170745849609375000000000000000', '0.0462951660156250000000000000000', '-0.0059776306152343750000000000000', '0.0669555664062500000000000000000', '-0.0060195922851562500000000000000', '0.0826416015625000000000000000000', '-0.0505981445312500000000000000000', '-0.0785522460937500000000000000000', '-0.0282897949218750000000000000000', '0.0446777343750000000000000000000', '0.0544128417968750000000000000000', '-0.0320129394531250000000000000000', '0.0431823730468750000000000000000', '-0.0111846923828125000000000000000', '-0.0668334960937500000000000000000', '-0.0730590820312500000000000000000', '0.0016002655029296875000000000000', '-0.0198211669921875000000000000000', '0.0290374755859375000000000000000', '-0.0166015625000000000000000000000', '0.0385437011718750000000000000000', '-0.0708618164062500000000000000000', '-0.0883178710937500000000000000000', '-0.0415649414062500000000000000000'], ['-0.1440429687500000000000000000000', '0.0551757812500000000000000000000', '-0.0724487304687500000000000000000', '-0.1073608398437500000000000000000', '-0.0455017089843750000000000000000', '0.0108642578125000000000000000000', '-0.0344238281250000000000000000000', '0.0168457031250000000000000000000', '-0.0255737304687500000000000000000', '-0.0258789062500000000000000000000', '0.0388488769531250000000000000000', '-0.0094680786132812500000000000000', '0.0553283691406250000000000000000', '-0.0473022460937500000000000000000', '0.0503845214843750000000000000000', '-0.0729980468750000000000000000000', '-0.1017456054687500000000000000000', '-0.0414428710937500000000000000000', '-0.0497741699218750000000000000000', '-0.0033397674560546875000000000000', '-0.1118164062500000000000000000000', '-0.1087036132812500000000000000000', '0.0217132568359375000000000000000', '-0.1084594726562500000000000000000', '0.0015401840209960937500000000000', '-0.0083999633789062500000000000000', '-0.0853271484375000000000000000000', '-0.0359802246093750000000000000000', '0.0474243164062500000000000000000', '-0.0075225830078125000000000000000', '-0.0143356323242187500000000000000', '0.0841674804687500000000000000000', '0.0384826660156250000000000000000', '0.1080322265625000000000000000000', '0.0792846679687500000000000000000', '-0.0181121826171875000000000000000', '-0.0175323486328125000000000000000', '0.0135726928710937500000000000000', '0.0243377685546875000000000000000', '0.0010566711425781250000000000000', '-0.0625610351562500000000000000000', '-0.1214599609375000000000000000000', '-0.0033588409423828125000000000000', '-0.1071777343750000000000000000000', '-0.0504455566406250000000000000000', '-0.1395263671875000000000000000000', '-0.1093750000000000000000000000000', '-0.0625610351562500000000000000000', '-0.1157226562500000000000000000000', '0.0075149536132812500000000000000', '-0.0628662109375000000000000000000', '-0.0155563354492187500000000000000', '-0.0568237304687500000000000000000', '-0.0089035034179687500000000000000', '0.0400085449218750000000000000000', '-0.0716552734375000000000000000000', '0.0062255859375000000000000000000', '-0.0492553710937500000000000000000', '-0.0197296142578125000000000000000', '0.0295257568359375000000000000000', '-0.0420837402343750000000000000000', '0.0859375000000000000000000000000', '0.0659179687500000000000000000000', '-0.0208282470703125000000000000000', '-0.0654907226562500000000000000000', '0.0544433593750000000000000000000', '-0.0616760253906250000000000000000', '-0.0331115722656250000000000000000', '0.0450439453125000000000000000000', '-0.0343017578125000000000000000000', '0.0483093261718750000000000000000', '0.1058959960937500000000000000000', '0.0215148925781250000000000000000', '0.0815429687500000000000000000000', '0.0496215820312500000000000000000', '0.0723266601562500000000000000000', '0.0400085449218750000000000000000', '0.0806884765625000000000000000000', '0.0039825439453125000000000000000', '0.1076660156250000000000000000000', '0.0541381835937500000000000000000', '0.0300140380859375000000000000000', '0.0380249023437500000000000000000', '0.1224975585937500000000000000000', '0.1062622070312500000000000000000', '0.1429443359375000000000000000000', '0.0173492431640625000000000000000', '0.0047645568847656250000000000000', '0.0025920867919921875000000000000', '0.0805664062500000000000000000000', '-0.0135726928710937500000000000000', '-0.0405578613281250000000000000000', '0.0154342651367187500000000000000', '0.0893554687500000000000000000000', '0.0199584960937500000000000000000', '-0.0189514160156250000000000000000', '0.0749511718750000000000000000000', '-0.0154953002929687500000000000000', '0.0393371582031250000000000000000', '-0.0057067871093750000000000000000', '0.0738525390625000000000000000000', '0.0082092285156250000000000000000', '0.0071983337402343750000000000000', '-0.0015897750854492187500000000000', '0.0334167480468750000000000000000', '0.0455017089843750000000000000000', '0.0046348571777343750000000000000', '0.0141448974609375000000000000000', '0.0027866363525390625000000000000', '0.0768432617187500000000000000000', '0.0647583007812500000000000000000', '0.0214233398437500000000000000000', '0.0126571655273437500000000000000', '-0.0415649414062500000000000000000', '-0.0263061523437500000000000000000', '-0.0235748291015625000000000000000', '-0.0065078735351562500000000000000', '0.0409545898437500000000000000000', '-0.0344543457031250000000000000000', '0.0691528320312500000000000000000', '0.0531005859375000000000000000000', '-0.0394897460937500000000000000000', '0.0106124877929687500000000000000', '0.0268707275390625000000000000000', '-0.0183868408203125000000000000000', '0.0298461914062500000000000000000', '0.0270996093750000000000000000000', '-0.0086212158203125000000000000000', '-0.0338745117187500000000000000000', '0.0527954101562500000000000000000', '0.0386352539062500000000000000000', '-0.0479736328125000000000000000000', '-0.0251770019531250000000000000000', '0.0722656250000000000000000000000', '0.0464782714843750000000000000000', '0.0643920898437500000000000000000', '-0.0139999389648437500000000000000', '-0.0329284667968750000000000000000', '0.0014266967773437500000000000000', '0.0452270507812500000000000000000', '0.0224609375000000000000000000000', '-0.0298004150390625000000000000000', '0.0946655273437500000000000000000', '0.0159454345703125000000000000000', '-0.0279083251953125000000000000000', '-0.0059776306152343750000000000000', '-0.0390319824218750000000000000000', '-0.0932006835937500000000000000000', '0.0380554199218750000000000000000', '-0.0713500976562500000000000000000', '-0.0102996826171875000000000000000', '-0.0072708129882812500000000000000', '-0.0296478271484375000000000000000', '-0.0845336914062500000000000000000', '-0.0197601318359375000000000000000', '-0.1384277343750000000000000000000', '-0.0588073730468750000000000000000', '-0.1148071289062500000000000000000', '-0.0905761718750000000000000000000', '-0.0675659179687500000000000000000', '-0.0582885742187500000000000000000', '-0.1116333007812500000000000000000', '-0.0599060058593750000000000000000', '-0.0191497802734375000000000000000', '-0.0928955078125000000000000000000', '-0.0188140869140625000000000000000', '-0.0115051269531250000000000000000', '-0.0404357910156250000000000000000', '-0.0770874023437500000000000000000', '-0.1352539062500000000000000000000', '-0.1131591796875000000000000000000', '-0.0474243164062500000000000000000', '-0.0928344726562500000000000000000', '-0.1236572265625000000000000000000', '-0.0867919921875000000000000000000', '-0.0706787109375000000000000000000', '-0.0258178710937500000000000000000', '-0.0432739257812500000000000000000', '-0.1345214843750000000000000000000', '-0.0508422851562500000000000000000', '-0.0804443359375000000000000000000', '-0.0132904052734375000000000000000', '0.0060653686523437500000000000000', '-0.1109008789062500000000000000000', '-0.1242675781250000000000000000000', '-0.1161499023437500000000000000000', '-0.0646972656250000000000000000000'], ['0.0270996093750000000000000000000', '-0.0947875976562500000000000000000', '-0.0639648437500000000000000000000', '-0.0321655273437500000000000000000', '-0.0276794433593750000000000000000', '-0.0766601562500000000000000000000', '-0.0121612548828125000000000000000', '-0.1512451171875000000000000000000', '-0.1054687500000000000000000000000', '-0.0172576904296875000000000000000', '0.0018844604492187500000000000000', '0.0011806488037109375000000000000', '0.0059127807617187500000000000000', '-0.0369262695312500000000000000000', '-0.0697021484375000000000000000000', '-0.0681762695312500000000000000000', '0.0922851562500000000000000000000', '0.0809936523437500000000000000000', '0.0252227783203125000000000000000', '-0.0227050781250000000000000000000', '0.0712890625000000000000000000000', '0.1214599609375000000000000000000', '-0.0116653442382812500000000000000', '0.0918579101562500000000000000000', '-0.0164642333984375000000000000000', '0.0450439453125000000000000000000', '0.0361938476562500000000000000000', '-0.0469970703125000000000000000000', '0.0695190429687500000000000000000', '0.0253753662109375000000000000000', '0.0151062011718750000000000000000', '-0.0298004150390625000000000000000', '-0.0566101074218750000000000000000', '-0.0497741699218750000000000000000', '-0.0497131347656250000000000000000', '0.0401306152343750000000000000000', '-0.0197143554687500000000000000000', '0.0895996093750000000000000000000', '0.0726928710937500000000000000000', '0.1191406250000000000000000000000', '0.1004638671875000000000000000000', '0.1456298828125000000000000000000', '0.0207061767578125000000000000000', '0.0831298828125000000000000000000', '0.0839843750000000000000000000000', '-0.0097961425781250000000000000000', '-0.0019063949584960937500000000000', '0.0576782226562500000000000000000', '0.0482177734375000000000000000000', '-0.0198516845703125000000000000000', '-0.0645751953125000000000000000000', '-0.0638427734375000000000000000000', '-0.0396118164062500000000000000000', '-0.0418701171875000000000000000000', '0.0100860595703125000000000000000', '0.0562744140625000000000000000000', '0.0390625000000000000000000000000', '0.0612182617187500000000000000000', '-0.0199127197265625000000000000000', '0.0552368164062500000000000000000', '0.0051460266113281250000000000000', '0.0105514526367187500000000000000', '-0.0003910064697265625000000000000', '0.0463562011718750000000000000000', '-0.1012573242187500000000000000000', '-0.0170593261718750000000000000000', '-0.1089477539062500000000000000000', '-0.0087432861328125000000000000000', '-0.0828247070312500000000000000000', '0.0113296508789062500000000000000', '0.0043220520019531250000000000000', '-0.0340270996093750000000000000000', '-0.0479125976562500000000000000000', '0.0570678710937500000000000000000', '0.0661010742187500000000000000000', '0.0121383666992187500000000000000', '0.0052299499511718750000000000000', '0.0000857710838317871093750000000', '0.0222930908203125000000000000000', '0.0005483627319335937500000000000', '0.0019836425781250000000000000000', '0.0204620361328125000000000000000', '0.0790405273437500000000000000000', '0.0593261718750000000000000000000', '0.0831909179687500000000000000000', '-0.0439453125000000000000000000000', '0.0047454833984375000000000000000', '-0.0197296142578125000000000000000', '-0.0389709472656250000000000000000', '0.0310974121093750000000000000000', '-0.0632324218750000000000000000000', '0.0548400878906250000000000000000', '0.0807495117187500000000000000000', '0.0415649414062500000000000000000', '-0.0670776367187500000000000000000', '-0.0895996093750000000000000000000', '-0.0239562988281250000000000000000', '0.0266418457031250000000000000000', '-0.0089874267578125000000000000000', '-0.0897216796875000000000000000000', '0.0432434082031250000000000000000', '0.0075531005859375000000000000000', '0.0132217407226562500000000000000', '-0.0519409179687500000000000000000', '-0.0208892822265625000000000000000', '0.0498046875000000000000000000000', '-0.0473327636718750000000000000000', '0.0515747070312500000000000000000', '0.0191040039062500000000000000000', '0.0788574218750000000000000000000', '-0.0312805175781250000000000000000', '0.0558776855468750000000000000000', '0.0494689941406250000000000000000', '0.0370483398437500000000000000000', '-0.0206604003906250000000000000000', '-0.0107345581054687500000000000000', '0.0520935058593750000000000000000', '0.1021728515625000000000000000000', '0.0350646972656250000000000000000', '-0.0445251464843750000000000000000', '0.0047607421875000000000000000000', '-0.0153427124023437500000000000000', '-0.0267333984375000000000000000000', '-0.1307373046875000000000000000000', '-0.0823364257812500000000000000000', '-0.0984497070312500000000000000000', '-0.0872192382812500000000000000000', '-0.1068725585937500000000000000000', '-0.0953369140625000000000000000000', '-0.0661010742187500000000000000000', '-0.0020484924316406250000000000000', '-0.0267181396484375000000000000000', '0.1006469726562500000000000000000', '0.1144409179687500000000000000000', '0.0914306640625000000000000000000', '0.0353698730468750000000000000000', '0.0455322265625000000000000000000', '-0.0011062622070312500000000000000', '0.0102157592773437500000000000000', '0.0450744628906250000000000000000', '0.0624694824218750000000000000000', '0.0736083984375000000000000000000', '0.0632324218750000000000000000000', '-0.0448303222656250000000000000000', '-0.0786743164062500000000000000000', '-0.0715332031250000000000000000000', '-0.0081176757812500000000000000000', '-0.0566711425781250000000000000000', '-0.1230468750000000000000000000000', '-0.0772705078125000000000000000000', '-0.0317077636718750000000000000000', '-0.0913085937500000000000000000000', '0.0133590698242187500000000000000', '0.0390625000000000000000000000000', '0.0657958984375000000000000000000', '0.0101547241210937500000000000000', '0.0117340087890625000000000000000', '0.0480651855468750000000000000000', '-0.0002710819244384765625000000000', '0.0175018310546875000000000000000', '0.0547485351562500000000000000000', '0.0411376953125000000000000000000', '0.0690917968750000000000000000000', '-0.0267639160156250000000000000000', '-0.0489807128906250000000000000000', '0.0069427490234375000000000000000', '-0.0084533691406250000000000000000', '0.0177001953125000000000000000000', '0.0171051025390625000000000000000', '0.0148696899414062500000000000000', '0.0079421997070312500000000000000', '0.0128402709960937500000000000000', '-0.0403442382812500000000000000000', '-0.0295715332031250000000000000000', '-0.0559997558593750000000000000000', '0.0125350952148437500000000000000', '0.0617980957031250000000000000000', '0.0029888153076171875000000000000', '-0.0264282226562500000000000000000', '-0.0838623046875000000000000000000', '-0.0373229980468750000000000000000', '0.0690917968750000000000000000000', '0.0001969337463378906250000000000', '-0.0314941406250000000000000000000', '0.0581970214843750000000000000000', '-0.0124359130859375000000000000000', '-0.0723266601562500000000000000000'], ['0.0165405273437500000000000000000', '0.0552978515625000000000000000000', '-0.1842041015625000000000000000000', '-0.1035156250000000000000000000000', '0.0874633789062500000000000000000', '0.1182250976562500000000000000000', '-0.1489257812500000000000000000000', '-0.1357421875000000000000000000000', '-0.3063964843750000000000000000000', '-0.1801757812500000000000000000000', '-0.0972900390625000000000000000000', '0.0085754394531250000000000000000', '-0.0270538330078125000000000000000', '-0.0007758140563964843750000000000', '-0.0364685058593750000000000000000', '0.0330200195312500000000000000000', '-0.0425720214843750000000000000000', '0.0283355712890625000000000000000', '-0.0208892822265625000000000000000', '-0.0143508911132812500000000000000', '0.0341796875000000000000000000000', '-0.0528564453125000000000000000000', '0.0603637695312500000000000000000', '0.0627441406250000000000000000000', '-0.0922241210937500000000000000000', '-0.0173339843750000000000000000000', '-0.1068725585937500000000000000000', '-0.0979003906250000000000000000000', '-0.1466064453125000000000000000000', '-0.1197509765625000000000000000000', '-0.0942993164062500000000000000000', '-0.1489257812500000000000000000000', '-0.1511230468750000000000000000000', '-0.0322265625000000000000000000000', '-0.0343322753906250000000000000000', '-0.0240631103515625000000000000000', '-0.0032215118408203125000000000000', '-0.0375976562500000000000000000000', '-0.0933837890625000000000000000000', '-0.0289459228515625000000000000000', '-0.0375366210937500000000000000000', '0.0437316894531250000000000000000', '0.0744018554687500000000000000000', '0.0770263671875000000000000000000', '0.0344848632812500000000000000000', '0.0149612426757812500000000000000', '-0.0222167968750000000000000000000', '0.0098037719726562500000000000000', '-0.0316772460937500000000000000000', '-0.0596008300781250000000000000000', '0.0609130859375000000000000000000', '-0.0494079589843750000000000000000', '0.0476074218750000000000000000000', '0.1173706054687500000000000000000', '0.0265502929687500000000000000000', '-0.0010499954223632812500000000000', '0.0318298339843750000000000000000', '0.0923461914062500000000000000000', '0.0411682128906250000000000000000', '-0.0668945312500000000000000000000', '-0.0554199218750000000000000000000', '-0.0094757080078125000000000000000', '0.0149765014648437500000000000000', '-0.0300750732421875000000000000000', '-0.0398864746093750000000000000000', '0.0496520996093750000000000000000', '0.0675659179687500000000000000000', '0.1042480468750000000000000000000', '0.0482177734375000000000000000000', '0.0396728515625000000000000000000', '0.0823974609375000000000000000000', '0.1311035156250000000000000000000', '0.0861206054687500000000000000000', '0.0839233398437500000000000000000', '0.0087585449218750000000000000000', '0.0102539062500000000000000000000', '0.0194702148437500000000000000000', '-0.0369567871093750000000000000000', '-0.0887451171875000000000000000000', '-0.0450439453125000000000000000000', '-0.0812988281250000000000000000000', '0.0200653076171875000000000000000', '0.0334777832031250000000000000000', '-0.0004205703735351562500000000000', '0.0523986816406250000000000000000', '0.0848388671875000000000000000000', '0.1300048828125000000000000000000', '0.1252441406250000000000000000000', '-0.0114288330078125000000000000000', '0.1025390625000000000000000000000', '0.0192108154296875000000000000000', '0.0542907714843750000000000000000', '0.0166625976562500000000000000000', '0.0202026367187500000000000000000', '-0.0066947937011718750000000000000', '-0.0420532226562500000000000000000', '-0.1244506835937500000000000000000', '-0.0689697265625000000000000000000', '-0.0061492919921875000000000000000', '0.1072387695312500000000000000000', '0.0332641601562500000000000000000', '0.0418395996093750000000000000000', '0.0326538085937500000000000000000', '0.1177978515625000000000000000000', '-0.0238189697265625000000000000000', '0.0098800659179687500000000000000', '-0.0311126708984375000000000000000', '-0.0239562988281250000000000000000', '-0.0260925292968750000000000000000', '-0.0125198364257812500000000000000', '-0.1007690429687500000000000000000', '-0.1507568359375000000000000000000', '-0.1535644531250000000000000000000', '-0.2022705078125000000000000000000', '-0.1173095703125000000000000000000', '-0.0843505859375000000000000000000', '-0.0991210937500000000000000000000', '-0.0533142089843750000000000000000', '-0.0325317382812500000000000000000', '-0.1174316406250000000000000000000', '-0.0807495117187500000000000000000', '-0.1369628906250000000000000000000', '-0.1483154296875000000000000000000', '-0.0444335937500000000000000000000', '-0.0988159179687500000000000000000', '-0.0158386230468750000000000000000', '0.0798950195312500000000000000000', '0.0448913574218750000000000000000', '0.1040039062500000000000000000000', '0.1077270507812500000000000000000', '0.1412353515625000000000000000000', '0.1545410156250000000000000000000', '0.0547485351562500000000000000000', '0.1210937500000000000000000000000', '-0.0254058837890625000000000000000', '-0.0548400878906250000000000000000', '-0.0953369140625000000000000000000', '-0.1679687500000000000000000000000', '-0.1677246093750000000000000000000', '-0.0814208984375000000000000000000', '-0.1217041015625000000000000000000', '-0.0819702148437500000000000000000', '-0.0529174804687500000000000000000', '0.0389099121093750000000000000000', '0.1186523437500000000000000000000', '0.0669555664062500000000000000000', '0.1253662109375000000000000000000', '0.0356140136718750000000000000000', '0.0899658203125000000000000000000', '0.0283050537109375000000000000000', '0.0908813476562500000000000000000', '0.0782470703125000000000000000000', '0.0277252197265625000000000000000', '0.0078887939453125000000000000000', '0.0547180175781250000000000000000', '-0.0147552490234375000000000000000', '0.0463562011718750000000000000000', '-0.0151977539062500000000000000000', '-0.0682373046875000000000000000000', '0.0186462402343750000000000000000', '0.0393981933593750000000000000000', '-0.0877075195312500000000000000000', '0.0509643554687500000000000000000', '-0.0429992675781250000000000000000', '-0.0358581542968750000000000000000', '-0.0137176513671875000000000000000', '0.0035896301269531250000000000000', '0.0291137695312500000000000000000', '-0.0295715332031250000000000000000', '0.0814208984375000000000000000000', '-0.0304718017578125000000000000000', '0.0418395996093750000000000000000', '0.0640258789062500000000000000000', '0.0654296875000000000000000000000', '-0.0637817382812500000000000000000', '-0.0222778320312500000000000000000', '0.0678100585937500000000000000000', '0.0336303710937500000000000000000', '-0.0093078613281250000000000000000', '-0.0719604492187500000000000000000', '0.0726318359375000000000000000000', '0.0805053710937500000000000000000', '0.0341491699218750000000000000000', '-0.0661010742187500000000000000000', '0.0103759765625000000000000000000', '0.0082778930664062500000000000000', '-0.0386352539062500000000000000000'], ['-0.1491699218750000000000000000000', '0.1065673828125000000000000000000', '0.1978759765625000000000000000000', '0.0889282226562500000000000000000', '0.1136474609375000000000000000000', '0.1328125000000000000000000000000', '0.0133514404296875000000000000000', '0.0950317382812500000000000000000', '-0.0596313476562500000000000000000', '0.0452270507812500000000000000000', '0.0586547851562500000000000000000', '-0.0384521484375000000000000000000', '-0.0846557617187500000000000000000', '-0.0746459960937500000000000000000', '-0.0626831054687500000000000000000', '-0.0329589843750000000000000000000', '-0.1230468750000000000000000000000', '-0.1115722656250000000000000000000', '-0.1632080078125000000000000000000', '-0.2030029296875000000000000000000', '-0.1689453125000000000000000000000', '-0.1221313476562500000000000000000', '-0.2089843750000000000000000000000', '-0.1671142578125000000000000000000', '-0.1962890625000000000000000000000', '-0.2384033203125000000000000000000', '-0.1557617187500000000000000000000', '-0.2056884765625000000000000000000', '-0.2005615234375000000000000000000', '-0.0993652343750000000000000000000', '-0.1174926757812500000000000000000', '-0.0638427734375000000000000000000', '-0.0596618652343750000000000000000', '-0.0390319824218750000000000000000', '-0.0065116882324218750000000000000', '0.0509338378906250000000000000000', '0.0207977294921875000000000000000', '0.0545654296875000000000000000000', '0.0723266601562500000000000000000', '0.1348876953125000000000000000000', '-0.0022735595703125000000000000000', '0.0860595703125000000000000000000', '0.0628662109375000000000000000000', '-0.0348510742187500000000000000000', '0.0621643066406250000000000000000', '0.0396423339843750000000000000000', '0.0117874145507812500000000000000', '0.0852661132812500000000000000000', '-0.0128250122070312500000000000000', '0.0072860717773437500000000000000', '0.0610046386718750000000000000000', '0.0584106445312500000000000000000', '0.0339050292968750000000000000000', '0.0126724243164062500000000000000', '0.0152511596679687500000000000000', '-0.0209655761718750000000000000000', '0.0637817382812500000000000000000', '0.0088272094726562500000000000000', '-0.0343017578125000000000000000000', '0.0157928466796875000000000000000', '-0.0364990234375000000000000000000', '-0.0414428710937500000000000000000', '0.0443420410156250000000000000000', '-0.0643310546875000000000000000000', '0.0124969482421875000000000000000', '0.0023937225341796875000000000000', '0.0402221679687500000000000000000', '0.0377502441406250000000000000000', '0.0316467285156250000000000000000', '0.1190795898437500000000000000000', '0.0863037109375000000000000000000', '0.0725708007812500000000000000000', '0.1113281250000000000000000000000', '0.0479125976562500000000000000000', '0.1322021484375000000000000000000', '0.0966186523437500000000000000000', '0.1243286132812500000000000000000', '0.1043701171875000000000000000000', '0.0227508544921875000000000000000', '-0.0135345458984375000000000000000', '-0.0058517456054687500000000000000', '-0.0262756347656250000000000000000', '0.0402221679687500000000000000000', '0.1230468750000000000000000000000', '0.0534973144531250000000000000000', '0.0998535156250000000000000000000', '0.1098022460937500000000000000000', '0.0115280151367187500000000000000', '0.0696411132812500000000000000000', '0.0279388427734375000000000000000', '-0.0165405273437500000000000000000', '0.0132751464843750000000000000000', '-0.0554199218750000000000000000000', '-0.0599975585937500000000000000000', '-0.0455932617187500000000000000000', '-0.0768432617187500000000000000000', '-0.0024166107177734375000000000000', '-0.0551452636718750000000000000000', '0.0339050292968750000000000000000', '-0.0216979980468750000000000000000', '-0.0022602081298828125000000000000', '-0.0557861328125000000000000000000', '-0.0469360351562500000000000000000', '-0.0772705078125000000000000000000', '0.0196380615234375000000000000000', '0.0481567382812500000000000000000', '-0.0667724609375000000000000000000', '-0.0457763671875000000000000000000', '-0.0577697753906250000000000000000', '-0.0059204101562500000000000000000', '-0.0761718750000000000000000000000', '-0.0286865234375000000000000000000', '-0.0418395996093750000000000000000', '0.0281066894531250000000000000000', '0.0272674560546875000000000000000', '0.0672607421875000000000000000000', '0.0481262207031250000000000000000', '0.0419311523437500000000000000000', '0.0769042968750000000000000000000', '0.0635986328125000000000000000000', '0.0741577148437500000000000000000', '-0.0418090820312500000000000000000', '0.0537414550781250000000000000000', '0.0483093261718750000000000000000', '-0.0502014160156250000000000000000', '-0.0419006347656250000000000000000', '0.0482788085937500000000000000000', '-0.0322265625000000000000000000000', '-0.0474548339843750000000000000000', '0.0432434082031250000000000000000', '-0.0016765594482421875000000000000', '0.0661621093750000000000000000000', '0.0489501953125000000000000000000', '-0.0424499511718750000000000000000', '0.0907592773437500000000000000000', '-0.0216979980468750000000000000000', '0.0194854736328125000000000000000', '0.0596923828125000000000000000000', '0.0057868957519531250000000000000', '0.0191345214843750000000000000000', '0.0783081054687500000000000000000', '0.1011352539062500000000000000000', '0.1002807617187500000000000000000', '0.0892333984375000000000000000000', '0.0278167724609375000000000000000', '0.0815429687500000000000000000000', '-0.0306396484375000000000000000000', '0.0327758789062500000000000000000', '-0.0055541992187500000000000000000', '0.0326843261718750000000000000000', '0.0518493652343750000000000000000', '-0.0099029541015625000000000000000', '0.0879516601562500000000000000000', '0.0935668945312500000000000000000', '0.0697631835937500000000000000000', '0.0380249023437500000000000000000', '0.0590820312500000000000000000000', '-0.0059661865234375000000000000000', '0.0354614257812500000000000000000', '0.0121994018554687500000000000000', '0.0728149414062500000000000000000', '0.0322265625000000000000000000000', '0.0572204589843750000000000000000', '0.0059013366699218750000000000000', '-0.0062637329101562500000000000000', '0.0175018310546875000000000000000', '0.0227966308593750000000000000000', '0.0879516601562500000000000000000', '0.0398864746093750000000000000000', '0.0451049804687500000000000000000', '0.0827026367187500000000000000000', '-0.0217285156250000000000000000000', '0.0638427734375000000000000000000', '-0.0169067382812500000000000000000', '0.0536193847656250000000000000000', '0.0100784301757812500000000000000', '0.1263427734375000000000000000000', '0.0057258605957031250000000000000', '-0.0029430389404296875000000000000', '-0.0122070312500000000000000000000', '0.0708618164062500000000000000000', '-0.0085449218750000000000000000000', '0.0224151611328125000000000000000', '-0.0071640014648437500000000000000', '-0.0488586425781250000000000000000', '-0.0488891601562500000000000000000', '-0.0689697265625000000000000000000'], ['0.1529541015625000000000000000000', '0.1428222656250000000000000000000', '-0.2147216796875000000000000000000', '-0.1384277343750000000000000000000', '0.1320800781250000000000000000000', '0.1211547851562500000000000000000', '-0.0747070312500000000000000000000', '-0.0859985351562500000000000000000', '-0.1174316406250000000000000000000', '-0.1420898437500000000000000000000', '0.0166015625000000000000000000000', '-0.0280151367187500000000000000000', '0.0224914550781250000000000000000', '-0.0411071777343750000000000000000', '0.0654296875000000000000000000000', '0.0596923828125000000000000000000', '0.0006766319274902343750000000000', '0.0701293945312500000000000000000', '0.0895385742187500000000000000000', '-0.0207519531250000000000000000000', '0.1229248046875000000000000000000', '0.0875244140625000000000000000000', '0.0414123535156250000000000000000', '0.0104751586914062500000000000000', '0.0984497070312500000000000000000', '0.0212707519531250000000000000000', '0.0196075439453125000000000000000', '-0.0751342773437500000000000000000', '-0.0704345703125000000000000000000', '0.0141830444335937500000000000000', '-0.0592956542968750000000000000000', '-0.1251220703125000000000000000000', '-0.0327758789062500000000000000000', '-0.0938110351562500000000000000000', '-0.0635986328125000000000000000000', '0.0126266479492187500000000000000', '-0.0976562500000000000000000000000', '0.0085601806640625000000000000000', '0.0542907714843750000000000000000', '-0.0385742187500000000000000000000', '0.0420837402343750000000000000000', '-0.0502319335937500000000000000000', '0.0425720214843750000000000000000', '0.0182800292968750000000000000000', '-0.0201873779296875000000000000000', '0.0426635742187500000000000000000', '0.0248107910156250000000000000000', '0.0387268066406250000000000000000', '-0.0029544830322265625000000000000', '-0.0300903320312500000000000000000', '0.0765380859375000000000000000000', '0.0117492675781250000000000000000', '0.0086517333984375000000000000000', '-0.0316772460937500000000000000000', '-0.0242156982421875000000000000000', '-0.1111450195312500000000000000000', '-0.1276855468750000000000000000000', '-0.0995483398437500000000000000000', '-0.0900268554687500000000000000000', '0.0226287841796875000000000000000', '0.0530395507812500000000000000000', '0.0673828125000000000000000000000', '0.0333862304687500000000000000000', '0.0452270507812500000000000000000', '0.0230407714843750000000000000000', '0.0329589843750000000000000000000', '0.0188751220703125000000000000000', '0.0026798248291015625000000000000', '-0.0111770629882812500000000000000', '-0.0130767822265625000000000000000', '-0.0049171447753906250000000000000', '-0.0162506103515625000000000000000', '0.0510559082031250000000000000000', '-0.0348205566406250000000000000000', '0.0061759948730468750000000000000', '-0.0034656524658203125000000000000', '-0.0118179321289062500000000000000', '0.0045661926269531250000000000000', '0.0485839843750000000000000000000', '0.0105743408203125000000000000000', '-0.0094070434570312500000000000000', '0.0358581542968750000000000000000', '0.0531005859375000000000000000000', '-0.0504455566406250000000000000000', '-0.0293273925781250000000000000000', '-0.0088424682617187500000000000000', '-0.0214996337890625000000000000000', '-0.0253906250000000000000000000000', '0.0161132812500000000000000000000', '0.0180053710937500000000000000000', '0.0067749023437500000000000000000', '-0.0147933959960937500000000000000', '0.0369873046875000000000000000000', '-0.0147781372070312500000000000000', '-0.0228424072265625000000000000000', '-0.0165100097656250000000000000000', '-0.0302429199218750000000000000000', '-0.0223236083984375000000000000000', '0.0297851562500000000000000000000', '-0.0140686035156250000000000000000', '-0.0747680664062500000000000000000', '0.0077743530273437500000000000000', '0.0224609375000000000000000000000', '-0.0447998046875000000000000000000', '-0.0209503173828125000000000000000', '0.0284423828125000000000000000000', '-0.0528564453125000000000000000000', '-0.0123519897460937500000000000000', '-0.0056343078613281250000000000000', '0.0486450195312500000000000000000', '-0.0715332031250000000000000000000', '0.0474853515625000000000000000000', '-0.0279998779296875000000000000000', '-0.0079193115234375000000000000000', '0.0258331298828125000000000000000', '-0.0442810058593750000000000000000', '0.0167083740234375000000000000000', '-0.0267791748046875000000000000000', '-0.0033740997314453125000000000000', '0.0109329223632812500000000000000', '0.0081787109375000000000000000000', '-0.0180664062500000000000000000000', '-0.0284271240234375000000000000000', '-0.0125808715820312500000000000000', '-0.0052871704101562500000000000000', '-0.0428466796875000000000000000000', '-0.0216522216796875000000000000000', '0.0596923828125000000000000000000', '-0.0242156982421875000000000000000', '-0.0036468505859375000000000000000', '0.0177459716796875000000000000000', '0.0522460937500000000000000000000', '0.0040054321289062500000000000000', '-0.0321350097656250000000000000000', '-0.0066642761230468750000000000000', '-0.0049552917480468750000000000000', '-0.0106658935546875000000000000000', '0.0103225708007812500000000000000', '0.0091094970703125000000000000000', '0.0472717285156250000000000000000', '0.0015373229980468750000000000000', '-0.0253906250000000000000000000000', '-0.0241851806640625000000000000000', '-0.0571289062500000000000000000000', '0.0430603027343750000000000000000', '0.0396728515625000000000000000000', '-0.0685424804687500000000000000000', '-0.0258483886718750000000000000000', '0.0068092346191406250000000000000', '0.0124282836914062500000000000000', '0.0179748535156250000000000000000', '0.0085449218750000000000000000000', '-0.0134811401367187500000000000000', '0.0276336669921875000000000000000', '-0.0177612304687500000000000000000', '-0.0103149414062500000000000000000', '0.0514221191406250000000000000000', '-0.0175323486328125000000000000000', '-0.0536499023437500000000000000000', '0.0217590332031250000000000000000', '0.0174407958984375000000000000000', '-0.0021057128906250000000000000000', '-0.0438842773437500000000000000000', '-0.0671386718750000000000000000000', '0.0133361816406250000000000000000', '-0.0243225097656250000000000000000', '-0.0212860107421875000000000000000', '-0.0180969238281250000000000000000', '-0.0183410644531250000000000000000', '0.0061111450195312500000000000000', '-0.0314331054687500000000000000000', '0.0168304443359375000000000000000', '0.0615539550781250000000000000000', '0.0718994140625000000000000000000', '0.0712890625000000000000000000000', '-0.0274047851562500000000000000000', '-0.0117797851562500000000000000000', '0.0160675048828125000000000000000', '-0.0004260540008544921875000000000', '0.0799560546875000000000000000000', '0.0638427734375000000000000000000', '-0.0234680175781250000000000000000', '0.0626220703125000000000000000000', '0.0147247314453125000000000000000', '0.0899047851562500000000000000000', '0.0191192626953125000000000000000', '0.0139999389648437500000000000000'], ['-0.0213623046875000000000000000000', '0.1033325195312500000000000000000', '-0.0819702148437500000000000000000', '-0.1970214843750000000000000000000', '-0.1693115234375000000000000000000', '-0.0775146484375000000000000000000', '-0.0840454101562500000000000000000', '0.0688476562500000000000000000000', '0.1058959960937500000000000000000', '0.0620117187500000000000000000000', '0.1229248046875000000000000000000', '0.1127319335937500000000000000000', '0.0330200195312500000000000000000', '0.0364685058593750000000000000000', '0.0676879882812500000000000000000', '0.0611572265625000000000000000000', '0.0448303222656250000000000000000', '0.0278625488281250000000000000000', '0.0293731689453125000000000000000', '0.0395812988281250000000000000000', '-0.0372009277343750000000000000000', '-0.0520324707031250000000000000000', '0.0847167968750000000000000000000', '0.0901489257812500000000000000000', '0.0404052734375000000000000000000', '-0.0178375244140625000000000000000', '0.0034217834472656250000000000000', '0.0640258789062500000000000000000', '-0.0364379882812500000000000000000', '0.0624389648437500000000000000000', '-0.0390930175781250000000000000000', '-0.0259246826171875000000000000000', '0.0816040039062500000000000000000', '0.1082153320312500000000000000000', '0.0728759765625000000000000000000', '-0.0209960937500000000000000000000', '0.0268096923828125000000000000000', '0.0331420898437500000000000000000', '0.0121688842773437500000000000000', '0.0231018066406250000000000000000', '0.0339965820312500000000000000000', '0.0285644531250000000000000000000', '0.0325317382812500000000000000000', '-0.0121231079101562500000000000000', '-0.0786132812500000000000000000000', '-0.0598754882812500000000000000000', '-0.0087966918945312500000000000000', '-0.0557861328125000000000000000000', '0.0449523925781250000000000000000', '0.0321960449218750000000000000000', '0.0358886718750000000000000000000', '-0.0487365722656250000000000000000', '-0.1179809570312500000000000000000', '-0.0839233398437500000000000000000', '-0.0371704101562500000000000000000', '0.0019235610961914062500000000000', '0.0294036865234375000000000000000', '0.0966796875000000000000000000000', '-0.0098419189453125000000000000000', '0.0919799804687500000000000000000', '0.0629272460937500000000000000000', '0.0132598876953125000000000000000', '-0.0214996337890625000000000000000', '-0.0254974365234375000000000000000', '-0.0533752441406250000000000000000', '0.0015573501586914062500000000000', '-0.0375976562500000000000000000000', '-0.0351867675781250000000000000000', '-0.0383300781250000000000000000000', '-0.0265808105468750000000000000000', '0.0388183593750000000000000000000', '0.0755004882812500000000000000000', '0.0679321289062500000000000000000', '0.0985717773437500000000000000000', '0.0797729492187500000000000000000', '0.0442199707031250000000000000000', '-0.0313415527343750000000000000000', '-0.0022468566894531250000000000000', '0.0104751586914062500000000000000', '-0.0426330566406250000000000000000', '0.0473022460937500000000000000000', '0.0190124511718750000000000000000', '-0.1116333007812500000000000000000', '-0.1566162109375000000000000000000', '-0.0894775390625000000000000000000', '-0.1589355468750000000000000000000', '-0.1961669921875000000000000000000', '-0.1199951171875000000000000000000', '-0.1485595703125000000000000000000', '-0.0975341796875000000000000000000', '-0.1140747070312500000000000000000', '0.0014972686767578125000000000000', '-0.0325012207031250000000000000000', '-0.0710449218750000000000000000000', '-0.0849609375000000000000000000000', '0.0086212158203125000000000000000', '0.0076408386230468750000000000000', '0.0382080078125000000000000000000', '0.0063705444335937500000000000000', '-0.0217742919921875000000000000000', '0.0756225585937500000000000000000', '0.0499267578125000000000000000000', '-0.0062026977539062500000000000000', '0.0781860351562500000000000000000', '-0.0357971191406250000000000000000', '-0.0199737548828125000000000000000', '-0.0234069824218750000000000000000', '-0.0223541259765625000000000000000', '-0.0166473388671875000000000000000', '0.1180419921875000000000000000000', '0.0726928710937500000000000000000', '0.1155395507812500000000000000000', '0.0238189697265625000000000000000', '-0.0069885253906250000000000000000', '0.0359497070312500000000000000000', '0.1007080078125000000000000000000', '0.0997314453125000000000000000000', '0.0824584960937500000000000000000', '0.0571289062500000000000000000000', '0.0255126953125000000000000000000', '0.0236968994140625000000000000000', '0.0133132934570312500000000000000', '0.0389404296875000000000000000000', '0.0525512695312500000000000000000', '0.0787353515625000000000000000000', '0.0226898193359375000000000000000', '0.0118713378906250000000000000000', '0.0256042480468750000000000000000', '0.0457458496093750000000000000000', '0.1099243164062500000000000000000', '-0.0093688964843750000000000000000', '0.0136108398437500000000000000000', '-0.0032501220703125000000000000000', '0.0321350097656250000000000000000', '-0.0015382766723632812500000000000', '0.0999145507812500000000000000000', '-0.0012102127075195312500000000000', '-0.0203552246093750000000000000000', '0.0188140869140625000000000000000', '0.0688476562500000000000000000000', '0.0307617187500000000000000000000', '0.0051765441894531250000000000000', '0.0856323242187500000000000000000', '0.0671997070312500000000000000000', '0.0704345703125000000000000000000', '0.0731811523437500000000000000000', '-0.0220031738281250000000000000000', '0.0011787414550781250000000000000', '-0.0539245605468750000000000000000', '-0.0259552001953125000000000000000', '0.0656127929687500000000000000000', '-0.0376281738281250000000000000000', '-0.0542297363281250000000000000000', '0.0013446807861328125000000000000', '-0.0328369140625000000000000000000', '-0.0415344238281250000000000000000', '0.0057525634765625000000000000000', '-0.0111999511718750000000000000000', '0.0281066894531250000000000000000', '-0.0428771972656250000000000000000', '-0.0091552734375000000000000000000', '0.0325927734375000000000000000000', '0.0595397949218750000000000000000', '0.0272369384765625000000000000000', '0.0322875976562500000000000000000', '0.0171661376953125000000000000000', '-0.0805053710937500000000000000000', '0.0222778320312500000000000000000', '0.0506591796875000000000000000000', '-0.0448303222656250000000000000000', '-0.0513305664062500000000000000000', '-0.0580444335937500000000000000000', '0.0242156982421875000000000000000', '-0.0126495361328125000000000000000', '-0.0229034423828125000000000000000', '0.0365905761718750000000000000000', '0.0325012207031250000000000000000', '-0.1068115234375000000000000000000', '-0.0847167968750000000000000000000', '0.0182037353515625000000000000000', '0.0263366699218750000000000000000', '-0.0654296875000000000000000000000', '-0.0544128417968750000000000000000', '0.0143814086914062500000000000000', '-0.0967407226562500000000000000000', '-0.0850830078125000000000000000000', '-0.0646972656250000000000000000000'], ['0.1584472656250000000000000000000', '0.0056228637695312500000000000000', '-0.0938110351562500000000000000000', '-0.2690429687500000000000000000000', '0.1096801757812500000000000000000', '0.1132202148437500000000000000000', '0.0084228515625000000000000000000', '-0.0406188964843750000000000000000', '-0.0799560546875000000000000000000', '-0.0424194335937500000000000000000', '0.0094757080078125000000000000000', '-0.0861206054687500000000000000000', '-0.0494384765625000000000000000000', '-0.0666503906250000000000000000000', '-0.0798950195312500000000000000000', '-0.0099716186523437500000000000000', '-0.0150909423828125000000000000000', '-0.0182189941406250000000000000000', '0.0705566406250000000000000000000', '-0.0011310577392578125000000000000', '-0.0297393798828125000000000000000', '0.0880737304687500000000000000000', '0.0924072265625000000000000000000', '0.1049804687500000000000000000000', '0.1030883789062500000000000000000', '-0.0257415771484375000000000000000', '-0.0008292198181152343750000000000', '-0.0145034790039062500000000000000', '0.0010766983032226562500000000000', '-0.0423583984375000000000000000000', '-0.0562438964843750000000000000000', '0.0105590820312500000000000000000', '-0.0139999389648437500000000000000', '-0.0130844116210937500000000000000', '-0.0910644531250000000000000000000', '-0.1040649414062500000000000000000', '-0.0938110351562500000000000000000', '-0.0673217773437500000000000000000', '-0.0241699218750000000000000000000', '0.0653686523437500000000000000000', '-0.0506896972656250000000000000000', '-0.0076942443847656250000000000000', '0.0426940917968750000000000000000', '-0.0011796951293945312500000000000', '-0.0542602539062500000000000000000', '-0.0335693359375000000000000000000', '-0.0206451416015625000000000000000', '-0.0577697753906250000000000000000', '0.0097198486328125000000000000000', '-0.0971069335937500000000000000000', '-0.0120162963867187500000000000000', '-0.0687255859375000000000000000000', '-0.0315246582031250000000000000000', '0.0250701904296875000000000000000', '-0.0939331054687500000000000000000', '-0.0316467285156250000000000000000', '-0.0233612060546875000000000000000', '0.0222167968750000000000000000000', '0.0557556152343750000000000000000', '0.1031494140625000000000000000000', '0.0834960937500000000000000000000', '-0.0331726074218750000000000000000', '0.0839843750000000000000000000000', '0.0181884765625000000000000000000', '0.0303802490234375000000000000000', '0.0459899902343750000000000000000', '-0.0023612976074218750000000000000', '0.0798339843750000000000000000000', '0.0893554687500000000000000000000', '0.0022220611572265625000000000000', '0.1246337890625000000000000000000', '-0.0019121170043945312500000000000', '0.1083984375000000000000000000000', '0.0204772949218750000000000000000', '0.0639038085937500000000000000000', '0.0009813308715820312500000000000', '0.0527954101562500000000000000000', '-0.0424804687500000000000000000000', '-0.0850830078125000000000000000000', '-0.1123046875000000000000000000000', '-0.0927124023437500000000000000000', '-0.0673828125000000000000000000000', '-0.0280914306640625000000000000000', '-0.0322570800781250000000000000000', '0.0329284667968750000000000000000', '-0.0317993164062500000000000000000', '0.0340270996093750000000000000000', '-0.0003509521484375000000000000000', '0.0464172363281250000000000000000', '0.0693359375000000000000000000000', '-0.0109481811523437500000000000000', '0.0281829833984375000000000000000', '-0.0199890136718750000000000000000', '0.0505371093750000000000000000000', '0.0276641845703125000000000000000', '0.0403747558593750000000000000000', '-0.0094146728515625000000000000000', '0.0149383544921875000000000000000', '-0.0631713867187500000000000000000', '-0.0074386596679687500000000000000', '-0.0444946289062500000000000000000', '0.0373535156250000000000000000000', '0.0356140136718750000000000000000', '0.0556335449218750000000000000000', '0.0574951171875000000000000000000', '-0.0542602539062500000000000000000', '-0.0112609863281250000000000000000', '-0.0226135253906250000000000000000', '0.0547485351562500000000000000000', '-0.0457153320312500000000000000000', '-0.0440063476562500000000000000000', '0.0614318847656250000000000000000', '0.0772094726562500000000000000000', '-0.0254364013671875000000000000000', '0.0409851074218750000000000000000', '0.0473327636718750000000000000000', '0.0896606445312500000000000000000', '-0.0114364624023437500000000000000', '0.0543823242187500000000000000000', '0.0044136047363281250000000000000', '0.0498962402343750000000000000000', '-0.0081634521484375000000000000000', '-0.0942382812500000000000000000000', '-0.1329345703125000000000000000000', '-0.0578918457031250000000000000000', '-0.0639038085937500000000000000000', '-0.1181640625000000000000000000000', '-0.1003417968750000000000000000000', '-0.0621032714843750000000000000000', '0.0251159667968750000000000000000', '-0.0890502929687500000000000000000', '0.0091018676757812500000000000000', '-0.0384521484375000000000000000000', '0.0226135253906250000000000000000', '0.1087036132812500000000000000000', '0.0519409179687500000000000000000', '0.0616760253906250000000000000000', '0.1123046875000000000000000000000', '0.0569458007812500000000000000000', '0.0770874023437500000000000000000', '0.1028442382812500000000000000000', '0.0198822021484375000000000000000', '0.0116043090820312500000000000000', '-0.1018066406250000000000000000000', '-0.1331787109375000000000000000000', '-0.1129760742187500000000000000000', '-0.1429443359375000000000000000000', '-0.0966186523437500000000000000000', '-0.0915527343750000000000000000000', '-0.0502929687500000000000000000000', '-0.0976562500000000000000000000000', '-0.0474853515625000000000000000000', '0.0770874023437500000000000000000', '0.0040092468261718750000000000000', '0.0825805664062500000000000000000', '0.0215606689453125000000000000000', '-0.0214233398437500000000000000000', '0.1088867187500000000000000000000', '0.0496215820312500000000000000000', '0.0695190429687500000000000000000', '0.0048828125000000000000000000000', '-0.0256652832031250000000000000000', '0.0636596679687500000000000000000', '0.0151290893554687500000000000000', '-0.0118789672851562500000000000000', '0.0080871582031250000000000000000', '-0.0163269042968750000000000000000', '0.0386047363281250000000000000000', '-0.0718994140625000000000000000000', '-0.0360717773437500000000000000000', '-0.0299530029296875000000000000000', '0.0358886718750000000000000000000', '-0.0960693359375000000000000000000', '-0.0256042480468750000000000000000', '0.0340576171875000000000000000000', '0.0040664672851562500000000000000', '0.0240325927734375000000000000000', '0.0324401855468750000000000000000', '0.0315246582031250000000000000000', '-0.0581359863281250000000000000000', '-0.0254821777343750000000000000000', '0.1147460937500000000000000000000', '0.0465393066406250000000000000000', '0.0517578125000000000000000000000', '0.0880737304687500000000000000000', '0.0577392578125000000000000000000', '-0.0350341796875000000000000000000'], ['0.1199340820312500000000000000000', '0.0336303710937500000000000000000', '0.0191802978515625000000000000000', '-0.0057182312011718750000000000000', '0.1225585937500000000000000000000', '0.0334472656250000000000000000000', '-0.0787353515625000000000000000000', '-0.0692138671875000000000000000000', '-0.2266845703125000000000000000000', '-0.0594787597656250000000000000000', '-0.0635375976562500000000000000000', '-0.0599060058593750000000000000000', '0.0168609619140625000000000000000', '-0.0594787597656250000000000000000', '-0.0633544921875000000000000000000', '-0.0649414062500000000000000000000', '-0.0434875488281250000000000000000', '0.0458679199218750000000000000000', '-0.0162353515625000000000000000000', '0.0272369384765625000000000000000', '0.0530395507812500000000000000000', '0.0176391601562500000000000000000', '0.0884399414062500000000000000000', '0.0940551757812500000000000000000', '-0.0416564941406250000000000000000', '0.0000753402709960937500000000000', '0.0789184570312500000000000000000', '0.0701293945312500000000000000000', '0.0909423828125000000000000000000', '0.0765380859375000000000000000000', '0.0539550781250000000000000000000', '-0.0147247314453125000000000000000', '0.0173797607421875000000000000000', '0.0614318847656250000000000000000', '0.0165405273437500000000000000000', '0.0360412597656250000000000000000', '0.0512695312500000000000000000000', '0.0568847656250000000000000000000', '0.0629272460937500000000000000000', '-0.0221405029296875000000000000000', '0.0080032348632812500000000000000', '0.0113754272460937500000000000000', '0.0062828063964843750000000000000', '-0.0933227539062500000000000000000', '-0.1652832031250000000000000000000', '-0.0842285156250000000000000000000', '-0.0327148437500000000000000000000', '-0.1368408203125000000000000000000', '-0.0856933593750000000000000000000', '-0.0708618164062500000000000000000', '-0.1755371093750000000000000000000', '-0.0979614257812500000000000000000', '-0.1029663085937500000000000000000', '-0.1700439453125000000000000000000', '-0.0686035156250000000000000000000', '-0.0616760253906250000000000000000', '-0.1210327148437500000000000000000', '-0.1082153320312500000000000000000', '-0.0752563476562500000000000000000', '-0.0863647460937500000000000000000', '-0.0377197265625000000000000000000', '0.0224761962890625000000000000000', '-0.0402526855468750000000000000000', '0.0082092285156250000000000000000', '-0.0069351196289062500000000000000', '-0.0419311523437500000000000000000', '-0.1103515625000000000000000000000', '-0.1041870117187500000000000000000', '-0.0708007812500000000000000000000', '-0.0282135009765625000000000000000', '-0.0664672851562500000000000000000', '-0.1168212890625000000000000000000', '-0.0039443969726562500000000000000', '-0.0292968750000000000000000000000', '-0.0173797607421875000000000000000', '0.0976562500000000000000000000000', '0.0753173828125000000000000000000', '0.1216430664062500000000000000000', '0.0701904296875000000000000000000', '-0.1010742187500000000000000000000', '-0.1019897460937500000000000000000', '0.0455322265625000000000000000000', '0.0341186523437500000000000000000', '0.0908813476562500000000000000000', '0.0811767578125000000000000000000', '0.0910034179687500000000000000000', '0.0494079589843750000000000000000', '0.1459960937500000000000000000000', '0.0408630371093750000000000000000', '0.0947875976562500000000000000000', '0.0811157226562500000000000000000', '0.0338134765625000000000000000000', '0.0140380859375000000000000000000', '-0.0121002197265625000000000000000', '-0.0352172851562500000000000000000', '-0.0465698242187500000000000000000', '-0.0159301757812500000000000000000', '-0.1496582031250000000000000000000', '-0.0230865478515625000000000000000', '-0.0422363281250000000000000000000', '-0.0002841949462890625000000000000', '-0.1301269531250000000000000000000', '-0.2236328125000000000000000000000', '-0.0522155761718750000000000000000', '-0.0308837890625000000000000000000', '-0.0331726074218750000000000000000', '-0.0284423828125000000000000000000', '0.0582580566406250000000000000000', '-0.0041770935058593750000000000000', '0.0816040039062500000000000000000', '-0.0093078613281250000000000000000', '0.0092239379882812500000000000000', '0.0569152832031250000000000000000', '-0.0956420898437500000000000000000', '-0.0703735351562500000000000000000', '-0.0684814453125000000000000000000', '-0.0556640625000000000000000000000', '0.0671997070312500000000000000000', '0.0659179687500000000000000000000', '0.0256042480468750000000000000000', '0.0217590332031250000000000000000', '0.0054702758789062500000000000000', '0.0582580566406250000000000000000', '-0.0165710449218750000000000000000', '-0.0081558227539062500000000000000', '0.0243072509765625000000000000000', '0.0160369873046875000000000000000', '0.0304870605468750000000000000000', '-0.0095367431640625000000000000000', '-0.0125350952148437500000000000000', '-0.0480957031250000000000000000000', '-0.0655517578125000000000000000000', '0.0106277465820312500000000000000', '-0.0383605957031250000000000000000', '0.0542297363281250000000000000000', '0.0103912353515625000000000000000', '-0.0346984863281250000000000000000', '-0.0107040405273437500000000000000', '0.0274047851562500000000000000000', '0.0258331298828125000000000000000', '0.0085449218750000000000000000000', '-0.0010671615600585937500000000000', '0.1068115234375000000000000000000', '0.0789794921875000000000000000000', '-0.0108566284179687500000000000000', '0.0060539245605468750000000000000', '0.0256652832031250000000000000000', '-0.0400085449218750000000000000000', '0.0111999511718750000000000000000', '0.0285339355468750000000000000000', '-0.0643310546875000000000000000000', '-0.0153961181640625000000000000000', '-0.0814208984375000000000000000000', '-0.0369567871093750000000000000000', '-0.0161285400390625000000000000000', '-0.0559082031250000000000000000000', '0.0387573242187500000000000000000', '-0.1060180664062500000000000000000', '-0.0459289550781250000000000000000', '-0.0217285156250000000000000000000', '-0.0170593261718750000000000000000', '-0.0516662597656250000000000000000', '-0.0553283691406250000000000000000', '-0.0573120117187500000000000000000', '-0.0489196777343750000000000000000', '-0.0480346679687500000000000000000', '-0.0215148925781250000000000000000', '-0.1202392578125000000000000000000', '-0.0286407470703125000000000000000', '-0.0170593261718750000000000000000', '-0.0949096679687500000000000000000', '-0.0466613769531250000000000000000', '-0.0289916992187500000000000000000', '-0.1218261718750000000000000000000', '-0.1531982421875000000000000000000', '-0.1309814453125000000000000000000', '-0.1220092773437500000000000000000', '-0.1506347656250000000000000000000', '-0.1102294921875000000000000000000', '-0.1375732421875000000000000000000', '-0.1760253906250000000000000000000', '-0.1359863281250000000000000000000', '-0.1034545898437500000000000000000', '-0.1726074218750000000000000000000', '-0.1194458007812500000000000000000', '-0.0544128417968750000000000000000', '-0.0300140380859375000000000000000'], ['0.2355957031250000000000000000000', '0.1523437500000000000000000000000', '-0.2980957031250000000000000000000', '-0.2025146484375000000000000000000', '0.0980224609375000000000000000000', '0.1053466796875000000000000000000', '0.0928344726562500000000000000000', '-0.0365600585937500000000000000000', '-0.1126708984375000000000000000000', '-0.0193023681640625000000000000000', '0.0601806640625000000000000000000', '-0.0359497070312500000000000000000', '-0.0622253417968750000000000000000', '0.0332946777343750000000000000000', '-0.0233306884765625000000000000000', '-0.0202026367187500000000000000000', '0.0513916015625000000000000000000', '-0.0166320800781250000000000000000', '0.0899658203125000000000000000000', '0.0725708007812500000000000000000', '0.1180419921875000000000000000000', '0.0778198242187500000000000000000', '0.0831298828125000000000000000000', '0.0555725097656250000000000000000', '-0.0002994537353515625000000000000', '0.0353698730468750000000000000000', '-0.0167388916015625000000000000000', '0.0341491699218750000000000000000', '0.0597534179687500000000000000000', '0.0447692871093750000000000000000', '-0.0314025878906250000000000000000', '-0.0578308105468750000000000000000', '-0.1142578125000000000000000000000', '0.0089874267578125000000000000000', '0.0011978149414062500000000000000', '-0.0828857421875000000000000000000', '-0.0155410766601562500000000000000', '0.0063056945800781250000000000000', '-0.0498046875000000000000000000000', '-0.0712280273437500000000000000000', '-0.0387878417968750000000000000000', '0.0529479980468750000000000000000', '-0.0437622070312500000000000000000', '0.0208282470703125000000000000000', '-0.0592956542968750000000000000000', '-0.0692138671875000000000000000000', '0.0069389343261718750000000000000', '-0.0609741210937500000000000000000', '-0.0088806152343750000000000000000', '-0.1044311523437500000000000000000', '-0.0704345703125000000000000000000', '-0.0349426269531250000000000000000', '-0.0133056640625000000000000000000', '-0.0695190429687500000000000000000', '-0.0615844726562500000000000000000', '0.0456542968750000000000000000000', '0.0643920898437500000000000000000', '-0.0528259277343750000000000000000', '-0.0317382812500000000000000000000', '0.0098495483398437500000000000000', '-0.0463867187500000000000000000000', '0.0711669921875000000000000000000', '-0.0050621032714843750000000000000', '0.0776367187500000000000000000000', '-0.0347595214843750000000000000000', '-0.0402221679687500000000000000000', '0.0117950439453125000000000000000', '0.0099868774414062500000000000000', '0.0684204101562500000000000000000', '-0.0170593261718750000000000000000', '-0.0419616699218750000000000000000', '-0.0431518554687500000000000000000', '-0.0238189697265625000000000000000', '0.0461425781250000000000000000000', '0.0116195678710937500000000000000', '-0.0513305664062500000000000000000', '-0.0228881835937500000000000000000', '0.0071792602539062500000000000000', '0.0325927734375000000000000000000', '0.0568237304687500000000000000000', '0.0204925537109375000000000000000', '0.0193939208984375000000000000000', '0.0117721557617187500000000000000', '-0.0003745555877685546875000000000', '0.0220642089843750000000000000000', '-0.0550842285156250000000000000000', '-0.0544128417968750000000000000000', '0.0234527587890625000000000000000', '-0.0495300292968750000000000000000', '-0.0484924316406250000000000000000', '0.0213165283203125000000000000000', '-0.0597534179687500000000000000000', '0.0499572753906250000000000000000', '0.0441894531250000000000000000000', '-0.0072135925292968750000000000000', '0.0386962890625000000000000000000', '0.0340881347656250000000000000000', '-0.0899658203125000000000000000000', '0.0109481811523437500000000000000', '-0.0011291503906250000000000000000', '-0.0420837402343750000000000000000', '0.0077362060546875000000000000000', '0.0234680175781250000000000000000', '-0.0547790527343750000000000000000', '0.0382995605468750000000000000000', '-0.0235137939453125000000000000000', '-0.0380554199218750000000000000000', '0.0364379882812500000000000000000', '0.0578918457031250000000000000000', '-0.0079421997070312500000000000000', '-0.0376586914062500000000000000000', '0.0217132568359375000000000000000', '0.0276184082031250000000000000000', '0.0510253906250000000000000000000', '0.0245819091796875000000000000000', '0.0075111389160156250000000000000', '-0.0241088867187500000000000000000', '-0.0702514648437500000000000000000', '-0.0343322753906250000000000000000', '0.0190124511718750000000000000000', '-0.0089111328125000000000000000000', '-0.0133438110351562500000000000000', '-0.0069198608398437500000000000000', '0.0054054260253906250000000000000', '-0.0364990234375000000000000000000', '-0.0332031250000000000000000000000', '0.0057220458984375000000000000000', '-0.0050506591796875000000000000000', '-0.0706176757812500000000000000000', '0.0449218750000000000000000000000', '-0.0205078125000000000000000000000', '0.0025806427001953125000000000000', '-0.0097961425781250000000000000000', '0.0318298339843750000000000000000', '0.0113449096679687500000000000000', '0.0268707275390625000000000000000', '0.0239562988281250000000000000000', '-0.0277099609375000000000000000000', '-0.0509338378906250000000000000000', '0.0238647460937500000000000000000', '-0.0149459838867187500000000000000', '-0.0555725097656250000000000000000', '0.0137557983398437500000000000000', '0.0558166503906250000000000000000', '-0.0570678710937500000000000000000', '0.0524291992187500000000000000000', '-0.0342407226562500000000000000000', '-0.0331420898437500000000000000000', '-0.0141601562500000000000000000000', '-0.0330505371093750000000000000000', '0.0126724243164062500000000000000', '0.0411376953125000000000000000000', '0.0062217712402343750000000000000', '0.0219879150390625000000000000000', '0.0066413879394531250000000000000', '-0.0301208496093750000000000000000', '-0.0481567382812500000000000000000', '0.0030612945556640625000000000000', '0.0643310546875000000000000000000', '0.0027523040771484375000000000000', '0.0169372558593750000000000000000', '-0.1008300781250000000000000000000', '-0.0245971679687500000000000000000', '0.0254058837890625000000000000000', '-0.0127258300781250000000000000000', '0.0024223327636718750000000000000', '0.0163574218750000000000000000000', '0.0642089843750000000000000000000', '-0.0700683593750000000000000000000', '-0.0178222656250000000000000000000', '-0.0107727050781250000000000000000', '0.0628662109375000000000000000000', '0.0348815917968750000000000000000', '0.0718994140625000000000000000000', '-0.0012083053588867187500000000000', '-0.0310668945312500000000000000000', '0.0689697265625000000000000000000', '0.0903320312500000000000000000000', '0.0044898986816406250000000000000', '0.0827026367187500000000000000000', '0.0600891113281250000000000000000', '0.0671997070312500000000000000000', '-0.0041084289550781250000000000000', '0.0275421142578125000000000000000', '-0.0239715576171875000000000000000', '0.0029659271240234375000000000000', '0.0855712890625000000000000000000'], ['0.1126708984375000000000000000000', '0.0993652343750000000000000000000', '-0.1156616210937500000000000000000', '-0.0646972656250000000000000000000', '0.0908203125000000000000000000000', '0.1627197265625000000000000000000', '-0.0608215332031250000000000000000', '-0.1081542968750000000000000000000', '-0.0463867187500000000000000000000', '-0.0281829833984375000000000000000', '-0.0500488281250000000000000000000', '-0.0553588867187500000000000000000', '-0.0153884887695312500000000000000', '-0.0244140625000000000000000000000', '-0.0512390136718750000000000000000', '-0.0645141601562500000000000000000', '-0.0846557617187500000000000000000', '0.0038185119628906250000000000000', '-0.0457763671875000000000000000000', '0.0137176513671875000000000000000', '-0.0258178710937500000000000000000', '0.0877685546875000000000000000000', '0.0085449218750000000000000000000', '0.0040931701660156250000000000000', '0.0630493164062500000000000000000', '0.0941772460937500000000000000000', '-0.0133972167968750000000000000000', '0.0567016601562500000000000000000', '-0.0417175292968750000000000000000', '0.0507507324218750000000000000000', '0.0130462646484375000000000000000', '-0.0529785156250000000000000000000', '-0.0551147460937500000000000000000', '-0.0189361572265625000000000000000', '0.0311126708984375000000000000000', '0.0120773315429687500000000000000', '-0.0751953125000000000000000000000', '0.0020389556884765625000000000000', '0.0542602539062500000000000000000', '-0.0416564941406250000000000000000', '-0.0599365234375000000000000000000', '0.0170593261718750000000000000000', '0.0115051269531250000000000000000', '-0.0160217285156250000000000000000', '0.0550231933593750000000000000000', '-0.0647583007812500000000000000000', '0.0194854736328125000000000000000', '-0.0011787414550781250000000000000', '-0.0578308105468750000000000000000', '-0.0565490722656250000000000000000', '0.0299224853515625000000000000000', '0.0847167968750000000000000000000', '0.0090560913085937500000000000000', '0.0229187011718750000000000000000', '0.0142059326171875000000000000000', '-0.0534973144531250000000000000000', '-0.1241455078125000000000000000000', '-0.1083374023437500000000000000000', '-0.0650634765625000000000000000000', '0.0443420410156250000000000000000', '-0.0096130371093750000000000000000', '0.0881347656250000000000000000000', '0.0638427734375000000000000000000', '0.0765380859375000000000000000000', '-0.0850830078125000000000000000000', '-0.0587158203125000000000000000000', '-0.1239013671875000000000000000000', '-0.0686645507812500000000000000000', '-0.0904541015625000000000000000000', '-0.1142578125000000000000000000000', '-0.0443725585937500000000000000000', '-0.1427001953125000000000000000000', '-0.1135253906250000000000000000000', '-0.1289062500000000000000000000000', '-0.0927124023437500000000000000000', '0.0278320312500000000000000000000', '-0.0125045776367187500000000000000', '0.0234069824218750000000000000000', '0.0724487304687500000000000000000', '0.0665893554687500000000000000000', '0.0062484741210937500000000000000', '0.1100463867187500000000000000000', '0.0988159179687500000000000000000', '0.0050239562988281250000000000000', '0.1020507812500000000000000000000', '0.0018920898437500000000000000000', '0.0568847656250000000000000000000', '0.0524291992187500000000000000000', '0.0363159179687500000000000000000', '0.0621337890625000000000000000000', '-0.0390319824218750000000000000000', '-0.0453491210937500000000000000000', '0.0936889648437500000000000000000', '0.0642700195312500000000000000000', '-0.0214996337890625000000000000000', '-0.0331420898437500000000000000000', '0.0134429931640625000000000000000', '0.0528869628906250000000000000000', '0.0236816406250000000000000000000', '0.0187683105468750000000000000000', '0.0390014648437500000000000000000', '0.0540771484375000000000000000000', '0.0139770507812500000000000000000', '0.0162506103515625000000000000000', '-0.0123443603515625000000000000000', '0.0959472656250000000000000000000', '0.0775756835937500000000000000000', '-0.0077590942382812500000000000000', '-0.0899047851562500000000000000000', '-0.0498962402343750000000000000000', '-0.1302490234375000000000000000000', '-0.0304870605468750000000000000000', '-0.1028442382812500000000000000000', '-0.0944213867187500000000000000000', '-0.0463562011718750000000000000000', '0.0271606445312500000000000000000', '-0.0733642578125000000000000000000', '0.0475769042968750000000000000000', '-0.0108795166015625000000000000000', '-0.0133743286132812500000000000000', '0.0517272949218750000000000000000', '0.0770263671875000000000000000000', '0.0478820800781250000000000000000', '0.0630493164062500000000000000000', '0.1110839843750000000000000000000', '0.0964355468750000000000000000000', '-0.0543212890625000000000000000000', '-0.0647583007812500000000000000000', '-0.1724853515625000000000000000000', '-0.1413574218750000000000000000000', '-0.1274414062500000000000000000000', '-0.1511230468750000000000000000000', '-0.1864013671875000000000000000000', '-0.1112670898437500000000000000000', '0.0048370361328125000000000000000', '-0.0537109375000000000000000000000', '0.0378723144531250000000000000000', '0.0204925537109375000000000000000', '0.0493164062500000000000000000000', '0.1060180664062500000000000000000', '0.0860595703125000000000000000000', '0.0560607910156250000000000000000', '0.0572204589843750000000000000000', '0.0970458984375000000000000000000', '0.1153564453125000000000000000000', '0.0191040039062500000000000000000', '0.1152954101562500000000000000000', '-0.0262603759765625000000000000000', '0.0705566406250000000000000000000', '0.0123672485351562500000000000000', '0.0278167724609375000000000000000', '-0.0979003906250000000000000000000', '-0.0986328125000000000000000000000', '-0.1319580078125000000000000000000', '-0.0855102539062500000000000000000', '-0.0612487792968750000000000000000', '-0.0438842773437500000000000000000', '0.0371704101562500000000000000000', '0.0405273437500000000000000000000', '-0.0104370117187500000000000000000', '0.0746459960937500000000000000000', '0.0761108398437500000000000000000', '0.0272369384765625000000000000000', '0.1262207031250000000000000000000', '0.0272674560546875000000000000000', '0.0902099609375000000000000000000', '0.0900268554687500000000000000000', '-0.0126037597656250000000000000000', '0.0792236328125000000000000000000', '-0.0266876220703125000000000000000', '0.0628051757812500000000000000000', '-0.0214233398437500000000000000000', '0.0665893554687500000000000000000', '0.0226745605468750000000000000000', '-0.0808715820312500000000000000000', '-0.1080322265625000000000000000000', '-0.1117553710937500000000000000000', '-0.0766601562500000000000000000000', '-0.0202484130859375000000000000000', '-0.0408325195312500000000000000000', '-0.1165771484375000000000000000000', '0.0065422058105468750000000000000', '-0.0579833984375000000000000000000', '0.0533142089843750000000000000000', '0.0520324707031250000000000000000', '0.0146865844726562500000000000000', '-0.0677490234375000000000000000000'], ['0.1970214843750000000000000000000', '0.0659790039062500000000000000000', '-0.2309570312500000000000000000000', '-0.2321777343750000000000000000000', '0.0238342285156250000000000000000', '0.1057739257812500000000000000000', '-0.0584716796875000000000000000000', '-0.1174316406250000000000000000000', '-0.0579833984375000000000000000000', '0.0029277801513671875000000000000', '0.0146179199218750000000000000000', '0.0012664794921875000000000000000', '-0.0215606689453125000000000000000', '-0.0846557617187500000000000000000', '0.0264587402343750000000000000000', '-0.0676879882812500000000000000000', '0.0318298339843750000000000000000', '-0.0293273925781250000000000000000', '0.0347290039062500000000000000000', '0.0063629150390625000000000000000', '0.0658569335937500000000000000000', '0.0024547576904296875000000000000', '0.0888061523437500000000000000000', '0.1425781250000000000000000000000', '0.0527648925781250000000000000000', '0.0883789062500000000000000000000', '0.0446472167968750000000000000000', '-0.0004982948303222656250000000000', '-0.0667724609375000000000000000000', '0.0175170898437500000000000000000', '-0.0421752929687500000000000000000', '-0.0924682617187500000000000000000', '-0.0562438964843750000000000000000', '-0.0259552001953125000000000000000', '-0.0661621093750000000000000000000', '-0.0725708007812500000000000000000', '-0.0718383789062500000000000000000', '-0.0133132934570312500000000000000', '-0.0624694824218750000000000000000', '-0.0379028320312500000000000000000', '0.0170135498046875000000000000000', '-0.0303039550781250000000000000000', '0.0536804199218750000000000000000', '0.0042076110839843750000000000000', '-0.0582885742187500000000000000000', '-0.0339965820312500000000000000000', '0.0362243652343750000000000000000', '0.0600891113281250000000000000000', '0.0334472656250000000000000000000', '0.0581054687500000000000000000000', '-0.0593566894531250000000000000000', '0.0109100341796875000000000000000', '0.0295257568359375000000000000000', '0.0418090820312500000000000000000', '0.0169830322265625000000000000000', '-0.0258941650390625000000000000000', '-0.0277404785156250000000000000000', '-0.0747070312500000000000000000000', '-0.0054397583007812500000000000000', '-0.0145797729492187500000000000000', '-0.0482177734375000000000000000000', '-0.0581665039062500000000000000000', '-0.0869750976562500000000000000000', '-0.0537109375000000000000000000000', '0.0042304992675781250000000000000', '-0.0258331298828125000000000000000', '-0.0349731445312500000000000000000', '0.0352478027343750000000000000000', '0.0827636718750000000000000000000', '0.0675659179687500000000000000000', '0.0376892089843750000000000000000', '-0.0331115722656250000000000000000', '0.0676269531250000000000000000000', '-0.0203247070312500000000000000000', '0.0677490234375000000000000000000', '0.0557861328125000000000000000000', '0.0770874023437500000000000000000', '-0.0006923675537109375000000000000', '0.0269775390625000000000000000000', '0.0177001953125000000000000000000', '-0.0743408203125000000000000000000', '-0.0288848876953125000000000000000', '-0.0422058105468750000000000000000', '0.0271453857421875000000000000000', '-0.0599365234375000000000000000000', '-0.0027351379394531250000000000000', '-0.0767822265625000000000000000000', '-0.0725097656250000000000000000000', '-0.0832519531250000000000000000000', '0.0389404296875000000000000000000', '0.0290832519531250000000000000000', '0.0683593750000000000000000000000', '0.0489501953125000000000000000000', '-0.0136108398437500000000000000000', '0.0520019531250000000000000000000', '0.0303039550781250000000000000000', '-0.0155563354492187500000000000000', '-0.0162811279296875000000000000000', '0.0103378295898437500000000000000', '-0.0146408081054687500000000000000', '0.0398864746093750000000000000000', '0.0063934326171875000000000000000', '-0.0447998046875000000000000000000', '0.0030784606933593750000000000000', '0.0016469955444335937500000000000', '0.0178070068359375000000000000000', '0.0177764892578125000000000000000', '0.0282592773437500000000000000000', '0.0039558410644531250000000000000', '-0.0006160736083984375000000000000', '0.0312347412109375000000000000000', '-0.0444946289062500000000000000000', '0.0035190582275390625000000000000', '0.0725708007812500000000000000000', '0.0048599243164062500000000000000', '0.0311737060546875000000000000000', '-0.0382080078125000000000000000000', '0.0393981933593750000000000000000', '-0.0230560302734375000000000000000', '-0.0174255371093750000000000000000', '0.0254516601562500000000000000000', '-0.0502624511718750000000000000000', '0.0242462158203125000000000000000', '0.0310211181640625000000000000000', '-0.0739135742187500000000000000000', '0.0532531738281250000000000000000', '0.0252838134765625000000000000000', '0.0233154296875000000000000000000', '-0.0169982910156250000000000000000', '-0.0133972167968750000000000000000', '-0.0006184577941894531250000000000', '-0.0268402099609375000000000000000', '0.0098876953125000000000000000000', '0.0323486328125000000000000000000', '0.0191955566406250000000000000000', '-0.0169525146484375000000000000000', '0.0248260498046875000000000000000', '-0.0119476318359375000000000000000', '0.0097274780273437500000000000000', '-0.0023727416992187500000000000000', '0.0528564453125000000000000000000', '-0.0259246826171875000000000000000', '-0.0009222030639648437500000000000', '-0.0205383300781250000000000000000', '-0.0338134765625000000000000000000', '-0.0013256072998046875000000000000', '-0.0066108703613281250000000000000', '-0.0118789672851562500000000000000', '0.0084533691406250000000000000000', '0.0451354980468750000000000000000', '-0.0371704101562500000000000000000', '0.0093688964843750000000000000000', '0.0159454345703125000000000000000', '0.0204315185546875000000000000000', '0.0150985717773437500000000000000', '-0.0084991455078125000000000000000', '-0.0135421752929687500000000000000', '0.0390625000000000000000000000000', '-0.0547180175781250000000000000000', '-0.0364685058593750000000000000000', '-0.0119781494140625000000000000000', '0.0408020019531250000000000000000', '0.0366516113281250000000000000000', '0.0100250244140625000000000000000', '-0.0414123535156250000000000000000', '-0.0718994140625000000000000000000', '0.0411987304687500000000000000000', '-0.0141601562500000000000000000000', '-0.0051765441894531250000000000000', '0.0022583007812500000000000000000', '0.0036983489990234375000000000000', '-0.0013236999511718750000000000000', '0.0023612976074218750000000000000', '0.0564575195312500000000000000000', '0.0647583007812500000000000000000', '-0.0725708007812500000000000000000', '0.0460815429687500000000000000000', '0.0129394531250000000000000000000', '-0.0037670135498046875000000000000', '0.0194549560546875000000000000000', '-0.0137786865234375000000000000000', '0.0475158691406250000000000000000', '0.0458679199218750000000000000000', '0.0172882080078125000000000000000', '0.0106506347656250000000000000000', '0.0045394897460937500000000000000', '0.0652465820312500000000000000000'], ['-0.0951538085937500000000000000000', '-0.1431884765625000000000000000000', '0.3444824218750000000000000000000', '0.2966308593750000000000000000000', '-0.0938110351562500000000000000000', '-0.0927734375000000000000000000000', '0.0411376953125000000000000000000', '0.1163940429687500000000000000000', '0.0174255371093750000000000000000', '0.1004638671875000000000000000000', '0.0581054687500000000000000000000', '-0.0019063949584960937500000000000', '0.0391845703125000000000000000000', '-0.0368041992187500000000000000000', '0.0161590576171875000000000000000', '-0.0799560546875000000000000000000', '-0.0277862548828125000000000000000', '-0.0357055664062500000000000000000', '-0.0422058105468750000000000000000', '0.0053558349609375000000000000000', '0.0580139160156250000000000000000', '0.0440063476562500000000000000000', '0.0789184570312500000000000000000', '0.0596313476562500000000000000000', '0.0886840820312500000000000000000', '-0.0134124755859375000000000000000', '-0.0338745117187500000000000000000', '0.0731811523437500000000000000000', '0.0344238281250000000000000000000', '0.0030174255371093750000000000000', '0.0137557983398437500000000000000', '-0.0824584960937500000000000000000', '-0.0858154296875000000000000000000', '-0.0469665527343750000000000000000', '-0.0638427734375000000000000000000', '-0.1600341796875000000000000000000', '-0.1229248046875000000000000000000', '-0.1539306640625000000000000000000', '-0.1385498046875000000000000000000', '-0.0855712890625000000000000000000', '-0.0644531250000000000000000000000', '-0.0324096679687500000000000000000', '0.0448913574218750000000000000000', '0.0958251953125000000000000000000', '0.0850219726562500000000000000000', 