Layer: model.0.weight
Shape: torch.Size([128, 187])
Values:
[['-0.0473383888602256774902343750000', '-0.0629494413733482360839843750000', '-0.0570137873291969299316406250000', '-0.0158581715077161788940429687500', '-0.1049934104084968566894531250000', '-0.0051919231191277503967285156250', '0.0094551919028162956237792968750', '-0.0832033380866050720214843750000', '-0.0100321052595973014831542968750', '-0.0938830301165580749511718750000', '0.0021425217855721712112426757812', '-0.0560818389058113098144531250000', '0.0381328687071800231933593750000', '-0.0877650976181030273437500000000', '0.0421184450387954711914062500000', '-0.0548464879393577575683593750000', '-0.0219209864735603332519531250000', '-0.0061220913194119930267333984375', '0.0345488488674163818359375000000', '0.0487801469862461090087890625000', '-0.0640251487493515014648437500000', '-0.0350853279232978820800781250000', '-0.0295183397829532623291015625000', '0.0381918102502822875976562500000', '-0.0266178529709577560424804687500', '0.0226549580693244934082031250000', '-0.0507424734532833099365234375000', '-0.0190881788730621337890625000000', '-0.0958322137594223022460937500000', '-0.0422718338668346405029296875000', '-0.0416814796626567840576171875000', '0.0347779840230941772460937500000', '-0.0353607498109340667724609375000', '-0.1009614765644073486328125000000', '-0.0676864013075828552246093750000', '0.0073315775953233242034912109375', '-0.0484531708061695098876953125000', '-0.0710068643093109130859375000000', '-0.0179491713643074035644531250000', '-0.0532899126410484313964843750000', '0.0134042892605066299438476562500', '-0.0108888205140829086303710937500', '-0.0866942629218101501464843750000', '-0.0146388839930295944213867187500', '0.0317451581358909606933593750000', '-0.0791645124554634094238281250000', '0.0135212391614913940429687500000', '0.0166421197354793548583984375000', '0.0116129964590072631835937500000', '-0.1183573380112648010253906250000', '0.0402023047208786010742187500000', '0.0278593190014362335205078125000', '0.0042378907091915607452392578125', '-0.0279676187783479690551757812500', '-0.0838041007518768310546875000000', '-0.0850687697529792785644531250000', '0.0352844633162021636962890625000', '-0.0315734110772609710693359375000', '-0.0664356574416160583496093750000', '0.0212101470679044723510742187500', '-0.0195929724723100662231445312500', '-0.0581200756132602691650390625000', '0.0192233622074127197265625000000', '-0.0772713571786880493164062500000', '-0.0314788185060024261474609375000', '-0.0728127211332321166992187500000', '-0.0158345475792884826660156250000', '-0.0024006371386349201202392578125', '-0.0289670880883932113647460937500', '-0.0333307497203350067138671875000', '0.0276430677622556686401367187500', '-0.0257947668433189392089843750000', '-0.0380590483546257019042968750000', '0.0042498675175011157989501953125', '0.0294525008648633956909179687500', '-0.0507628619670867919921875000000', '0.0093425419181585311889648437500', '0.0592940263450145721435546875000', '-0.0381391569972038269042968750000', '0.0223578233271837234497070312500', '-0.0243357028812170028686523437500', '0.0165621414780616760253906250000', '-0.0095315882936120033264160156250', '0.0310382992029190063476562500000', '-0.0204610805958509445190429687500', '0.0434601269662380218505859375000', '-0.0158273559063673019409179687500', '-0.0314999185502529144287109375000', '-0.0376449450850486755371093750000', '0.0114380307495594024658203125000', '-0.0494982376694679260253906250000', '-0.0798249393701553344726562500000', '-0.0457955673336982727050781250000', '-0.0788916572928428649902343750000', '0.0622791796922683715820312500000', '-0.0324875116348266601562500000000', '0.0138747934252023696899414062500', '-0.0192355308681726455688476562500', '-0.0431433171033859252929687500000', '-0.0225637089461088180541992187500', '-0.0436826609075069427490234375000', '-0.0127842305228114128112792968750', '-0.0177563913166522979736328125000', '-0.0540644340217113494873046875000', '-0.0627875402569770812988281250000', '-0.0332023166120052337646484375000', '-0.0206576213240623474121093750000', '-0.0344388224184513092041015625000', '0.0025474980939179658889770507812', '-0.0028242757543921470642089843750', '0.0618963204324245452880859375000', '0.0215638335794210433959960937500', '-0.0527292825281620025634765625000', '0.0677355006337165832519531250000', '-0.0783522427082061767578125000000', '0.0076276659965515136718750000000', '0.0532411187887191772460937500000', '-0.0538142621517181396484375000000', '0.0035425201058387756347656250000', '0.0207348242402076721191406250000', '0.0427763089537620544433593750000', '-0.0243135578930377960205078125000', '-0.0548068881034851074218750000000', '-0.0659485906362533569335937500000', '0.0478752031922340393066406250000', '-0.0516320057213306427001953125000', '-0.0563347265124320983886718750000', '-0.0168048404157161712646484375000', '-0.0397245846688747406005859375000', '-0.0475412756204605102539062500000', '0.0288644433021545410156250000000', '0.0075477212667465209960937500000', '-0.0508667789399623870849609375000', '0.0040794610977172851562500000000', '0.0450001284480094909667968750000', '-0.0136868022382259368896484375000', '-0.0456732735037803649902343750000', '-0.0301040895283222198486328125000', '-0.0375012867152690887451171875000', '0.0413705483078956604003906250000', '-0.0192533433437347412109375000000', '-0.0661593377590179443359375000000', '0.0488696172833442687988281250000', '-0.0386493913829326629638671875000', '-0.0152666792273521423339843750000', '-0.0498720332980155944824218750000', '-0.0135097242891788482666015625000', '0.0360911935567855834960937500000', '0.0272610932588577270507812500000', '-0.0044479966163635253906250000000', '-0.0533832460641860961914062500000', '0.0248349830508232116699218750000', '0.0566287934780120849609375000000', '-0.0479124449193477630615234375000', '-0.0592368170619010925292968750000', '0.0617694258689880371093750000000', '-0.0508644953370094299316406250000', '-0.0227402262389659881591796875000', '0.0034247711300849914550781250000', '-0.0328674763441085815429687500000', '0.0117797181010246276855468750000', '0.0540923178195953369140625000000', '-0.0409202687442302703857421875000', '0.0015243142843246459960937500000', '-0.0208491869270801544189453125000', '0.0446136742830276489257812500000', '0.0123909264802932739257812500000', '-0.0458484515547752380371093750000', '-0.0014157518744468688964843750000', '-0.0249948017299175262451171875000', '-0.0289741344749927520751953125000', '-0.0495739988982677459716796875000', '-0.0009686425328254699707031250000', '0.0717688947916030883789062500000', '0.0305066332221031188964843750000', '0.0684576928615570068359375000000', '-0.0254539586603641510009765625000', '0.0250550806522369384765625000000', '-0.0681360065937042236328125000000', '0.0466229841113090515136718750000', '0.0522372275590896606445312500000', '-0.0618051588535308837890625000000', '0.0228191018104553222656250000000', '-0.0090608894824981689453125000000', '0.0166957601904869079589843750000', '-0.0710544437170028686523437500000', '-0.0520149469375610351562500000000'], ['0.2292564958333969116210937500000', '0.5745751261711120605468750000000', '-0.6586347222328186035156250000000', '-0.9280351996421813964843750000000', '0.4277935624122619628906250000000', '0.6070113778114318847656250000000', '-0.0369235426187515258789062500000', '0.0305608082562685012817382812500', '0.4092915356159210205078125000000', '-0.1708157956600189208984375000000', '-0.6814584732055664062500000000000', '-0.5493569970130920410156250000000', '-0.2168469876050949096679687500000', '0.2530529201030731201171875000000', '0.1845000237226486206054687500000', '0.1788710057735443115234375000000', '-0.0240948814898729324340820312500', '-0.1541842669248580932617187500000', '-0.0348042808473110198974609375000', '-0.0730442777276039123535156250000', '-0.0799810141324996948242187500000', '0.1897175759077072143554687500000', '0.0714244470000267028808593750000', '0.1900860518217086791992187500000', '0.0684218704700469970703125000000', '0.0361216515302658081054687500000', '0.0642897188663482666015625000000', '-0.0657429695129394531250000000000', '-0.0756561458110809326171875000000', '0.0427276231348514556884765625000', '0.1078497469425201416015625000000', '0.0059134466573596000671386718750', '-0.0160124432295560836791992187500', '0.1620548814535140991210937500000', '-0.0069679678417742252349853515625', '0.1633151471614837646484375000000', '0.1617358326911926269531250000000', '0.0650802552700042724609375000000', '0.1275628954172134399414062500000', '-0.0681851878762245178222656250000', '-0.1442019194364547729492187500000', '-0.1204072386026382446289062500000', '-0.2875635921955108642578125000000', '-0.1968256831169128417968750000000', '0.0632460415363311767578125000000', '0.1396261751651763916015625000000', '-0.0862028822302818298339843750000', '0.1005526334047317504882812500000', '-0.0997309982776641845703125000000', '-0.1164852902293205261230468750000', '-0.0125942993909120559692382812500', '0.2392238974571228027343750000000', '0.3418660759925842285156250000000', '0.0789431333541870117187500000000', '-0.0929916650056838989257812500000', '-0.0705064162611961364746093750000', '-0.3272150754928588867187500000000', '-0.3846358656883239746093750000000', '-0.4095191359519958496093750000000', '-0.5042300820350646972656250000000', '-0.5456032156944274902343750000000', '-0.5588361024856567382812500000000', '-0.4791209995746612548828125000000', '-0.3893405497074127197265625000000', '-0.4961295723915100097656250000000', '-0.4000080525875091552734375000000', '-0.5441058278083801269531250000000', '-0.5266975760459899902343750000000', '-0.4637971520423889160156250000000', '-0.3379681408405303955078125000000', '-0.2380727827548980712890625000000', '-0.1661145389080047607421875000000', '-0.1134369745850563049316406250000', '-0.0530701428651809692382812500000', '0.1879134774208068847656250000000', '0.3036994338035583496093750000000', '0.3824523389339447021484375000000', '0.4320613443851470947265625000000', '0.5018164515495300292968750000000', '0.3578076660633087158203125000000', '0.3461747765541076660156250000000', '0.5092846155166625976562500000000', '0.4471285045146942138671875000000', '0.3100213706493377685546875000000', '0.4694210588932037353515625000000', '0.3244407773017883300781250000000', '0.3941325843334197998046875000000', '0.3202303349971771240234375000000', '0.1919049471616744995117187500000', '0.2507080733776092529296875000000', '0.0974942147731781005859375000000', '0.0503177382051944732666015625000', '0.0919754952192306518554687500000', '0.0672143176198005676269531250000', '-0.0659019649028778076171875000000', '-0.3042167723178863525390625000000', '-0.3690717220306396484375000000000', '-0.0529205054044723510742187500000', '-0.1388130038976669311523437500000', '-0.0246244147419929504394531250000', '0.0695654824376106262207031250000', '0.0664926990866661071777343750000', '0.0753515213727951049804687500000', '0.2562893033027648925781250000000', '0.1206432655453681945800781250000', '0.1178566589951515197753906250000', '0.1759053468704223632812500000000', '0.1054691076278686523437500000000', '0.1327366828918457031250000000000', '0.1456525772809982299804687500000', '0.0293496511876583099365234375000', '-0.1914812773466110229492187500000', '-0.3175259232521057128906250000000', '-0.2900309860706329345703125000000', '-0.3018837273120880126953125000000', '-0.3730093538761138916015625000000', '-0.1149479076266288757324218750000', '0.0623760372400283813476562500000', '0.0716617554426193237304687500000', '0.0557211115956306457519531250000', '0.0486317239701747894287109375000', '0.0947177782654762268066406250000', '-0.0560715608298778533935546875000', '0.0114789633080363273620605468750', '0.0430251993238925933837890625000', '0.0473636910319328308105468750000', '0.2300317287445068359375000000000', '0.0722099766135215759277343750000', '0.1420086473226547241210937500000', '0.2744441032409667968750000000000', '0.1411583870649337768554687500000', '0.2262872159481048583984375000000', '0.0664990469813346862792968750000', '0.0246570967137813568115234375000', '-0.0990221127867698669433593750000', '0.0308647993952035903930664062500', '-0.1657909005880355834960937500000', '-0.1901955753564834594726562500000', '-0.2388688772916793823242187500000', '-0.2802504301071166992187500000000', '-0.2024383395910263061523437500000', '-0.1613734066486358642578125000000', '-0.0486616529524326324462890625000', '-0.1304130256175994873046875000000', '0.0124070914462208747863769531250', '0.0363045372068881988525390625000', '-0.0507628656923770904541015625000', '-0.1370845884084701538085937500000', '0.0209337379783391952514648437500', '0.1668816357851028442382812500000', '0.1025704815983772277832031250000', '0.0886359140276908874511718750000', '0.0021566925570368766784667968750', '0.0204422976821660995483398437500', '0.3022972941398620605468750000000', '0.2074788659811019897460937500000', '0.0211065225303173065185546875000', '0.2593912482261657714843750000000', '0.0872816070914268493652343750000', '0.0839404985308647155761718750000', '-0.0989593639969825744628906250000', '-0.2794300615787506103515625000000', '-0.0671155303716659545898437500000', '-0.0726194456219673156738281250000', '-0.0667712166905403137207031250000', '-0.3962037265300750732421875000000', '-0.2432826310396194458007812500000', '-0.3057677149772644042968750000000', '-0.2247157692909240722656250000000', '-0.1468220055103302001953125000000', '-0.2314253002405166625976562500000', '-0.1042545959353446960449218750000', '-0.0812875702977180480957031250000', '-0.0733626037836074829101562500000', '-0.1635479331016540527343750000000', '0.0147411813959479331970214843750', '0.2640284001827239990234375000000', '0.2708992063999176025390625000000', '0.3116278350353240966796875000000', '0.3336767256259918212890625000000', '0.1074143424630165100097656250000', '-0.0062293056398630142211914062500', '0.1822098940610885620117187500000', '0.2242874950170516967773437500000', '-0.0736278817057609558105468750000', '0.1726747155189514160156250000000', '0.5512015819549560546875000000000'], ['-0.0789995267987251281738281250000', '-0.0621758662164211273193359375000', '-0.0212535988539457321166992187500', '-0.0322295501828193664550781250000', '-0.0051113413646817207336425781250', '0.0306637696921825408935546875000', '-0.0598155781626701354980468750000', '0.0455490536987781524658203125000', '-0.0016743136802688241004943847656', '0.0252898465842008590698242187500', '0.0461035259068012237548828125000', '0.0665221139788627624511718750000', '0.0169773045927286148071289062500', '-0.0708468556404113769531250000000', '-0.0656710490584373474121093750000', '-0.0661262944340705871582031250000', '0.0460696667432785034179687500000', '0.0668069869279861450195312500000', '-0.0171058718115091323852539062500', '-0.0139611586928367614746093750000', '-0.0058494410477578639984130859375', '0.0534652881324291229248046875000', '-0.0747872516512870788574218750000', '0.0470203571021556854248046875000', '0.0668931454420089721679687500000', '-0.0016468538669869303703308105469', '-0.0464702732861042022705078125000', '-0.0559702143073081970214843750000', '-0.0390939339995384216308593750000', '0.0408728122711181640625000000000', '-0.0633323863148689270019531250000', '0.0601667948067188262939453125000', '0.0150945968925952911376953125000', '0.0147279119119048118591308593750', '-0.0665558651089668273925781250000', '0.0294961910694837570190429687500', '0.0631741508841514587402343750000', '-0.0711551830172538757324218750000', '-0.0454381853342056274414062500000', '-0.0246929861605167388916015625000', '-0.0112759685143828392028808593750', '0.0325458310544490814208984375000', '0.0113382870331406593322753906250', '0.0299480669200420379638671875000', '-0.0197486914694309234619140625000', '0.0015433458611369132995605468750', '0.0301066413521766662597656250000', '-0.0188647080212831497192382812500', '-0.0705450549721717834472656250000', '0.0538330525159835815429687500000', '-0.0203675888478755950927734375000', '0.0035903661046177148818969726562', '0.0247361585497856140136718750000', '0.0426675006747245788574218750000', '-0.0067532183602452278137207031250', '-0.0258300472050905227661132812500', '0.0085029620677232742309570312500', '-0.0768354088068008422851562500000', '-0.0345943160355091094970703125000', '-0.0568905323743820190429687500000', '-0.0579358115792274475097656250000', '-0.0608582906424999237060546875000', '0.0074286106973886489868164062500', '0.0611874684691429138183593750000', '0.0238709002733230590820312500000', '-0.0335965007543563842773437500000', '0.0448137111961841583251953125000', '0.0624401196837425231933593750000', '-0.0136917056515812873840332031250', '0.0040231039747595787048339843750', '-0.0320366993546485900878906250000', '-0.0791864320635795593261718750000', '-0.0220577754080295562744140625000', '-0.0128554655238986015319824218750', '-0.0234725791960954666137695312500', '-0.0072956914082169532775878906250', '-0.0240428056567907333374023437500', '-0.0482912547886371612548828125000', '-0.0704291686415672302246093750000', '-0.0512330867350101470947265625000', '0.0642607435584068298339843750000', '-0.0573910586535930633544921875000', '0.0612317472696304321289062500000', '-0.0658222660422325134277343750000', '0.0400863774120807647705078125000', '-0.0541644543409347534179687500000', '-0.0047096936032176017761230468750', '0.0731480866670608520507812500000', '0.0511282198131084442138671875000', '0.0292180534452199935913085937500', '0.0070548546500504016876220703125', '0.0094101997092366218566894531250', '-0.0418661646544933319091796875000', '-0.0186334736645221710205078125000', '0.0723693668842315673828125000000', '-0.0015098319854587316513061523438', '-0.0558848530054092407226562500000', '-0.0367562659084796905517578125000', '-0.0619771927595138549804687500000', '0.0029260211158543825149536132812', '-0.0554152205586433410644531250000', '0.0166603699326515197753906250000', '0.0106953270733356475830078125000', '0.0607786923646926879882812500000', '-0.0275386311113834381103515625000', '0.0200357493013143539428710937500', '0.0640008449554443359375000000000', '-0.0491763465106487274169921875000', '0.0566336959600448608398437500000', '0.0460667796432971954345703125000', '-0.0255193356424570083618164062500', '-0.0722460150718688964843750000000', '0.0538130365312099456787109375000', '0.0326772592961788177490234375000', '-0.0304179340600967407226562500000', '0.0414041727781295776367187500000', '-0.0251856110990047454833984375000', '-0.0375781804323196411132812500000', '-0.0096960822120308876037597656250', '-0.0746727064251899719238281250000', '-0.0519616492092609405517578125000', '-0.0640406832098960876464843750000', '-0.0560438185930252075195312500000', '0.0201362650841474533081054687500', '-0.0029187020845711231231689453125', '-0.0411093682050704956054687500000', '-0.0703044384717941284179687500000', '0.0512939430773258209228515625000', '-0.0221351254731416702270507812500', '-0.0367491692304611206054687500000', '-0.0416457429528236389160156250000', '-0.0471509248018264770507812500000', '0.0014891029568389058113098144531', '-0.0213453117758035659790039062500', '0.0678275823593139648437500000000', '0.0467758253216743469238281250000', '0.0578111149370670318603515625000', '0.0581229217350482940673828125000', '0.0155173949897289276123046875000', '-0.0443070866167545318603515625000', '0.0777181312441825866699218750000', '-0.0527820624411106109619140625000', '0.0310339890420436859130859375000', '-0.0239512883126735687255859375000', '-0.0524475686252117156982421875000', '-0.0223578941076993942260742187500', '0.0351997017860412597656250000000', '-0.0410809852182865142822265625000', '-0.0085407793521881103515625000000', '0.0259878765791654586791992187500', '-0.0485846661031246185302734375000', '-0.0384232215583324432373046875000', '-0.0276893470436334609985351562500', '-0.0606829188764095306396484375000', '-0.0036718137562274932861328125000', '-0.0121413059532642364501953125000', '0.0432716235518455505371093750000', '0.0605610162019729614257812500000', '-0.0340507999062538146972656250000', '0.0160221084952354431152343750000', '-0.0048794001340866088867187500000', '0.0394030809402465820312500000000', '-0.0294565111398696899414062500000', '-0.0546387732028961181640625000000', '0.0053173229098320007324218750000', '-0.0214779227972030639648437500000', '-0.0390795357525348663330078125000', '-0.0312418900430202484130859375000', '0.0713009685277938842773437500000', '-0.0146485455334186553955078125000', '0.0441959649324417114257812500000', '-0.0366916283965110778808593750000', '-0.0217109657824039459228515625000', '0.0438530445098876953125000000000', '-0.0082322582602500915527343750000', '-0.0101461559534072875976562500000', '-0.0482122302055358886718750000000', '-0.0380548797547817230224609375000', '0.0164744853973388671875000000000', '0.0018329322338104248046875000000', '0.0353382080793380737304687500000', '0.0588999539613723754882812500000', '0.0107903853058815002441406250000', '-0.0727687552571296691894531250000', '-0.0639197826385498046875000000000', '0.0607515126466751098632812500000', '0.0378513932228088378906250000000'], ['0.2243805825710296630859375000000', '-0.1539277583360671997070312500000', '-0.3585557043552398681640625000000', '0.1428088694810867309570312500000', '0.4811269640922546386718750000000', '-0.0472187884151935577392578125000', '-0.7057844400405883789062500000000', '-0.5152411460876464843750000000000', '-0.6109362840652465820312500000000', '-0.5951325893402099609375000000000', '-0.2976038455963134765625000000000', '-0.2306316643953323364257812500000', '-0.0977960750460624694824218750000', '0.0316651389002799987792968750000', '0.1700280904769897460937500000000', '0.0674470812082290649414062500000', '0.1553112715482711791992187500000', '0.2225246727466583251953125000000', '0.1803101003170013427734375000000', '0.2581988275051116943359375000000', '0.0696191489696502685546875000000', '0.2036833316087722778320312500000', '0.0894296169281005859375000000000', '0.0955799445509910583496093750000', '0.0137806795537471771240234375000', '0.0719591975212097167968750000000', '0.0478063374757766723632812500000', '-0.1383663266897201538085937500000', '-0.1807967722415924072265625000000', '-0.1399178206920623779296875000000', '-0.1206531375646591186523437500000', '-0.1709612011909484863281250000000', '-0.2330930233001708984375000000000', '-0.1938074231147766113281250000000', '-0.1917283684015274047851562500000', '-0.2690909206867218017578125000000', '-0.2097927480936050415039062500000', '-0.1360225379467010498046875000000', '-0.1247939765453338623046875000000', '-0.0537883602082729339599609375000', '0.0415965206921100616455078125000', '-0.0310801230370998382568359375000', '-0.0348943173885345458984375000000', '-0.0056462539359927177429199218750', '-0.0948199480772018432617187500000', '-0.1848685890436172485351562500000', '-0.0855490192770957946777343750000', '-0.0435947440564632415771484375000', '-0.2021673470735549926757812500000', '-0.1036399975419044494628906250000', '-0.1892323046922683715820312500000', '-0.0765494853258132934570312500000', '-0.1821437478065490722656250000000', '-0.1698076725006103515625000000000', '-0.1286853551864624023437500000000', '-0.1180217117071151733398437500000', '-0.3412178456783294677734375000000', '-0.3291933238506317138671875000000', '-0.3402479887008666992187500000000', '-0.1653806269168853759765625000000', '0.1394454389810562133789062500000', '0.3197371661663055419921875000000', '0.5175716280937194824218750000000', '0.4792189598083496093750000000000', '0.2071462124586105346679687500000', '0.2508192360401153564453125000000', '0.3957348167896270751953125000000', '0.4299033880233764648437500000000', '0.1833579689264297485351562500000', '0.2099355161190032958984375000000', '0.4453792273998260498046875000000', '0.2447370290756225585937500000000', '0.4094018042087554931640625000000', '0.2819376587867736816406250000000', '0.3075364828109741210937500000000', '0.1943268030881881713867187500000', '0.1277576088905334472656250000000', '0.4077214598655700683593750000000', '0.0515264756977558135986328125000', '-0.1444809138774871826171875000000', '-0.3227868080139160156250000000000', '-0.4604030251502990722656250000000', '-0.2905381321907043457031250000000', '-0.2336531728506088256835937500000', '-0.1607419550418853759765625000000', '-0.1394574791193008422851562500000', '-0.0824371129274368286132812500000', '0.1946828663349151611328125000000', '0.0032925214618444442749023437500', '0.0706568583846092224121093750000', '0.2906345725059509277343750000000', '0.2787850201129913330078125000000', '0.5133237242698669433593750000000', '0.4001021981239318847656250000000', '0.4267285764217376708984375000000', '0.1823938190937042236328125000000', '-0.2128775268793106079101562500000', '-0.3130928874015808105468750000000', '-0.6529515981674194335937500000000', '-0.6210830807685852050781250000000', '-0.7577024102210998535156250000000', '-0.6375164389610290527343750000000', '-0.5593445301055908203125000000000', '-0.3443299531936645507812500000000', '-0.2102338224649429321289062500000', '0.1525286138057708740234375000000', '0.0833426415920257568359375000000', '0.1508856117725372314453125000000', '0.1510283350944519042968750000000', '-0.0078412536531686782836914062500', '0.1531083583831787109375000000000', '-0.0541483163833618164062500000000', '0.1548127233982086181640625000000', '0.0856104567646980285644531250000', '0.1135526373982429504394531250000', '0.1370802372694015502929687500000', '0.2065520733594894409179687500000', '0.4012806117534637451171875000000', '0.3754736781120300292968750000000', '0.1650576740503311157226562500000', '0.1972774267196655273437500000000', '0.2411277443170547485351562500000', '0.2312570661306381225585937500000', '-0.1166033446788787841796875000000', '-0.2014008611440658569335937500000', '-0.3103397488594055175781250000000', '-0.1346759647130966186523437500000', '0.0866478979587554931640625000000', '0.1288184821605682373046875000000', '0.1931830942630767822265625000000', '0.0763843059539794921875000000000', '0.1602464914321899414062500000000', '-0.0682401731610298156738281250000', '-0.1459428966045379638671875000000', '-0.0919272750616073608398437500000', '-0.0242567025125026702880859375000', '0.1477918773889541625976562500000', '0.1132659688591957092285156250000', '0.2762095332145690917968750000000', '0.0323352105915546417236328125000', '0.0102803176268935203552246093750', '0.0192122161388397216796875000000', '-0.1151383891701698303222656250000', '-0.1296770870685577392578125000000', '0.0850720405578613281250000000000', '0.0325672589242458343505859375000', '-0.1563952714204788208007812500000', '-0.2175296097993850708007812500000', '-0.2450516074895858764648437500000', '-0.2262910902500152587890625000000', '-0.1472047716379165649414062500000', '-0.1997462660074234008789062500000', '-0.0117844622582197189331054687500', '-0.1417059302330017089843750000000', '0.0185060016810894012451171875000', '-0.0996969789266586303710937500000', '0.0944148451089859008789062500000', '0.1678600311279296875000000000000', '0.1893987357616424560546875000000', '0.0965890511870384216308593750000', '0.0586529560387134552001953125000', '0.1111197397112846374511718750000', '0.0629250034689903259277343750000', '0.3433917760848999023437500000000', '0.1418776512145996093750000000000', '0.0944972634315490722656250000000', '0.0481326468288898468017578125000', '-0.2356705516576766967773437500000', '-0.1982443332672119140625000000000', '-0.1275551468133926391601562500000', '-0.0130788888782262802124023437500', '0.0324704982340335845947265625000', '-0.0323197953402996063232421875000', '-0.4382613599300384521484375000000', '-0.4079459607601165771484375000000', '-0.2661200165748596191406250000000', '-0.2391112446784973144531250000000', '-0.2741120755672454833984375000000', '-0.2374559044837951660156250000000', '-0.0940606817603111267089843750000', '-0.3346436619758605957031250000000', '-0.1622459590435028076171875000000', '-0.1279897689819335937500000000000', '-0.1807999163866043090820312500000', '-0.1146322488784790039062500000000', '-0.1797576844692230224609375000000', '-0.0538485608994960784912109375000'], ['0.5082654953002929687500000000000', '-0.3234764635562896728515625000000', '-0.5007577538490295410156250000000', '-0.1013576537370681762695312500000', '0.5609349012374877929687500000000', '0.3007348179817199707031250000000', '-0.4736168980598449707031250000000', '-0.5497678518295288085937500000000', '-0.4049307703971862792968750000000', '-0.6848342418670654296875000000000', '-0.7678003907203674316406250000000', '-0.7079812884330749511718750000000', '-0.1822556257247924804687500000000', '0.0800698176026344299316406250000', '-0.0138052925467491149902343750000', '0.2156494706869125366210937500000', '0.2945355474948883056640625000000', '0.4235980808734893798828125000000', '0.2693769335746765136718750000000', '0.3163333535194396972656250000000', '0.1355376690626144409179687500000', '0.0802716761827468872070312500000', '-0.1079929843544960021972656250000', '-0.2140271067619323730468750000000', '-0.2962967455387115478515625000000', '-0.3326559364795684814453125000000', '-0.2842439115047454833984375000000', '-0.0940362811088562011718750000000', '-0.2432025223970413208007812500000', '-0.0378410406410694122314453125000', '-0.0138427494093775749206542968750', '0.1006441190838813781738281250000', '0.2496585398912429809570312500000', '0.2844960689544677734375000000000', '0.3915114402770996093750000000000', '0.4290233850479125976562500000000', '0.5241511464118957519531250000000', '0.4800178110599517822265625000000', '0.5075541138648986816406250000000', '0.4137359857559204101562500000000', '0.2329965233802795410156250000000', '0.1917928308248519897460937500000', '0.0624762959778308868408203125000', '0.2096945047378540039062500000000', '0.1439431905746459960937500000000', '0.0605686977505683898925781250000', '-0.1882229745388031005859375000000', '-0.2898369431495666503906250000000', '-0.4133275449275970458984375000000', '-0.3682422637939453125000000000000', '-0.1805758029222488403320312500000', '-0.1613981574773788452148437500000', '0.0469088740646839141845703125000', '0.0767103284597396850585937500000', '0.2822589874267578125000000000000', '0.3964952528476715087890625000000', '0.1498773545026779174804687500000', '0.0711934566497802734375000000000', '0.0271420031785964965820312500000', '-0.0720774456858634948730468750000', '-0.1324723213911056518554687500000', '-0.1527791768312454223632812500000', '-0.2774717211723327636718750000000', '-0.1426206678152084350585937500000', '0.0024734481703490018844604492188', '-0.2048002481460571289062500000000', '-0.0866703167557716369628906250000', '-0.1057865321636199951171875000000', '-0.1198273524641990661621093750000', '-0.1053882166743278503417968750000', '-0.1590462923049926757812500000000', '-0.1606544256210327148437500000000', '-0.1423113644123077392578125000000', '-0.0627001821994781494140625000000', '0.0235757753252983093261718750000', '0.1044488474726676940917968750000', '0.0098459664732217788696289062500', '0.0399985797703266143798828125000', '-0.0726218745112419128417968750000', '-0.0147141497582197189331054687500', '-0.0583259575068950653076171875000', '-0.0383909419178962707519531250000', '-0.0776657909154891967773437500000', '0.0323257967829704284667968750000', '-0.0024171108379960060119628906250', '-0.0784859731793403625488281250000', '0.1120232716202735900878906250000', '0.0239053610712289810180664062500', '0.0133389784023165702819824218750', '0.0716856494545936584472656250000', '-0.0549173429608345031738281250000', '0.0417178384959697723388671875000', '0.1061142086982727050781250000000', '-0.1595613807439804077148437500000', '0.1570558995008468627929687500000', '0.2320501059293746948242187500000', '0.0764699727296829223632812500000', '0.1725234240293502807617187500000', '-0.0610772855579853057861328125000', '0.1731382012367248535156250000000', '-0.0360249988734722137451171875000', '0.2767234742641448974609375000000', '0.0648463070392608642578125000000', '0.0096602980047464370727539062500', '0.1115124598145484924316406250000', '-0.0064496388658881187438964843750', '-0.0357014425098896026611328125000', '0.0645041540265083312988281250000', '0.2060912698507308959960937500000', '0.1526612639427185058593750000000', '0.1970946490764617919921875000000', '-0.1174441128969192504882812500000', '-0.2262745648622512817382812500000', '-0.0978862568736076354980468750000', '0.1849804669618606567382812500000', '0.1103259325027465820312500000000', '0.0401728674769401550292968750000', '0.0491511747241020202636718750000', '0.0117521844804286956787109375000', '-0.0532387159764766693115234375000', '-0.1137254238128662109375000000000', '0.1111289337277412414550781250000', '-0.0288603119552135467529296875000', '-0.0457893013954162597656250000000', '-0.2445534169673919677734375000000', '-0.0890445187687873840332031250000', '0.1948027312755584716796875000000', '0.0841112807393074035644531250000', '-0.0452870614826679229736328125000', '0.0031762130092829465866088867188', '-0.1073064208030700683593750000000', '0.0135717783123254776000976562500', '-0.1103736832737922668457031250000', '-0.0387828014791011810302734375000', '-0.0450597889721393585205078125000', '0.2206749767065048217773437500000', '-0.1450645178556442260742187500000', '-0.0095848720520734786987304687500', '0.0324462354183197021484375000000', '0.2115375995635986328125000000000', '0.1102416440844535827636718750000', '-0.1303132474422454833984375000000', '0.0748748034238815307617187500000', '-0.0131821818649768829345703125000', '-0.0975016057491302490234375000000', '-0.0734442472457885742187500000000', '-0.0877444297075271606445312500000', '-0.3175223469734191894531250000000', '-0.1516691893339157104492187500000', '0.1735878586769104003906250000000', '-0.1708076894283294677734375000000', '-0.0065861684270203113555908203125', '-0.2799129486083984375000000000000', '-0.1031920015811920166015625000000', '-0.0241990834474563598632812500000', '-0.0431574024260044097900390625000', '-0.2326092272996902465820312500000', '-0.1814660578966140747070312500000', '-0.1182763651013374328613281250000', '-0.1427624523639678955078125000000', '-0.0015741457464173436164855957031', '0.0823559612035751342773437500000', '0.1051839292049407958984375000000', '0.1303713917732238769531250000000', '0.0958438366651535034179687500000', '-0.0930784642696380615234375000000', '-0.2111038416624069213867187500000', '-0.3544531166553497314453125000000', '-0.3685199022293090820312500000000', '-0.2766215801239013671875000000000', '-0.3544911444187164306640625000000', '-0.3235700428485870361328125000000', '-0.1956630796194076538085937500000', '-0.4045693278312683105468750000000', '-0.5738173723220825195312500000000', '-0.4671711325645446777343750000000', '-0.4073622822761535644531250000000', '-0.4633683264255523681640625000000', '-0.2080305814743041992187500000000', '-0.3056942224502563476562500000000', '-0.3020325601100921630859375000000', '-0.1772180646657943725585937500000', '-0.1291751116514205932617187500000', '-0.1454019248485565185546875000000', '-0.1574405133724212646484375000000', '-0.0267938971519470214843750000000', '-0.0525744184851646423339843750000'], ['-0.2851574420928955078125000000000', '0.2046017199754714965820312500000', '1.0021378993988037109375000000000', '1.1974507570266723632812500000000', '-0.3017405271530151367187500000000', '-0.5547595024108886718750000000000', '-0.2260585427284240722656250000000', '-0.0745056122541427612304687500000', '0.2451699227094650268554687500000', '0.2748749554157257080078125000000', '0.5139051675796508789062500000000', '0.4629943966865539550781250000000', '0.3506739735603332519531250000000', '0.2151776999235153198242187500000', '0.4302133321762084960937500000000', '0.2716568112373352050781250000000', '0.3491420149803161621093750000000', '0.1930377334356307983398437500000', '0.2295135855674743652343750000000', '0.1279158443212509155273437500000', '0.0635754317045211791992187500000', '0.0558716170489788055419921875000', '0.0722620114684104919433593750000', '-0.0760358944535255432128906250000', '-0.1895686089992523193359375000000', '-0.0991571545600891113281250000000', '-0.0761991888284683227539062500000', '-0.1888089925050735473632812500000', '0.0191894154995679855346679687500', '-0.0101397335529327392578125000000', '0.0428131520748138427734375000000', '-0.0122676463797688484191894531250', '0.0218588560819625854492187500000', '-0.1166486963629722595214843750000', '-0.0779240503907203674316406250000', '-0.1465385109186172485351562500000', '-0.2033190131187438964843750000000', '-0.2096286267042160034179687500000', '-0.1375528424978256225585937500000', '-0.0773681774735450744628906250000', '-0.0180896017700433731079101562500', '-0.0588112697005271911621093750000', '-0.0746978297829627990722656250000', '-0.0551442243158817291259765625000', '-0.1913489252328872680664062500000', '-0.1470036655664443969726562500000', '-0.1351624131202697753906250000000', '-0.2039724588394165039062500000000', '-0.2952290475368499755859375000000', '-0.3155831992626190185546875000000', '-0.1715557128190994262695312500000', '-0.0965940803289413452148437500000', '0.0878072679042816162109375000000', '-0.1194650456309318542480468750000', '-0.0817333310842514038085937500000', '-0.0451891459524631500244140625000', '0.0840475708246231079101562500000', '-0.0017492703627794981002807617188', '0.0047139711678028106689453125000', '-0.0513461679220199584960937500000', '-0.0451621823012828826904296875000', '0.1232521459460258483886718750000', '0.1002732813358306884765625000000', '0.1701863259077072143554687500000', '-0.0287576019763946533203125000000', '0.2340204417705535888671875000000', '0.0100319050252437591552734375000', '-0.0053258151747286319732666015625', '0.2077209800481796264648437500000', '-0.1122824996709823608398437500000', '-0.0810497775673866271972656250000', '0.1384757310152053833007812500000', '-0.0533015877008438110351562500000', '-0.1953314393758773803710937500000', '-0.1411422789096832275390625000000', '-0.0287372935563325881958007812500', '-0.1606970578432083129882812500000', '-0.1268752068281173706054687500000', '-0.1699308753013610839843750000000', '-0.2773019969463348388671875000000', '0.2349401861429214477539062500000', '0.0583324283361434936523437500000', '0.0387070924043655395507812500000', '0.1348113119602203369140625000000', '0.2227079272270202636718750000000', '-0.0220889113843441009521484375000', '-0.0604513585567474365234375000000', '-0.0151824690401554107666015625000', '0.1557325124740600585937500000000', '0.3960697948932647705078125000000', '0.0017904451815411448478698730469', '-0.6270321011543273925781250000000', '-0.8855812549591064453125000000000', '-0.6010990738868713378906250000000', '-0.3907311558723449707031250000000', '-0.1993459165096282958984375000000', '-0.3222154378890991210937500000000', '-0.3714709579944610595703125000000', '-0.1493814140558242797851562500000', '0.1199604645371437072753906250000', '0.0780159756541252136230468750000', '-0.2893620431423187255859375000000', '-0.3627017140388488769531250000000', '-0.3595253825187683105468750000000', '-0.1730226129293441772460937500000', '0.4067148566246032714843750000000', '0.4280149042606353759765625000000', '-0.0212577898055315017700195312500', '-0.1854183077812194824218750000000', '0.1978753060102462768554687500000', '-0.1140359789133071899414062500000', '-0.1228866651654243469238281250000', '-0.4106894135475158691406250000000', '-0.4501435160636901855468750000000', '-0.4922495782375335693359375000000', '-0.1090387552976608276367187500000', '-0.1654130220413208007812500000000', '-0.4760025143623352050781250000000', '-0.3827274739742279052734375000000', '-0.1263699680566787719726562500000', '0.1277909874916076660156250000000', '-0.1919333487749099731445312500000', '-0.5674834251403808593750000000000', '-0.4183555245399475097656250000000', '-0.1516035944223403930664062500000', '-0.2609077095985412597656250000000', '-0.4111423194408416748046875000000', '-0.4033065140247344970703125000000', '-0.2160951793193817138671875000000', '-0.7964994311332702636718750000000', '-0.4988485574722290039062500000000', '-0.6253957152366638183593750000000', '-0.3951673805713653564453125000000', '-0.2979482412338256835937500000000', '-0.2352597117424011230468750000000', '-0.0602593943476676940917968750000', '0.2430643439292907714843750000000', '0.0606132745742797851562500000000', '-0.1189275681972503662109375000000', '-0.1415898352861404418945312500000', '-0.1799547970294952392578125000000', '-0.0927047953009605407714843750000', '-0.4955358505249023437500000000000', '-0.6178217530250549316406250000000', '-0.6038290262222290039062500000000', '-0.5415591001510620117187500000000', '-0.5763803124427795410156250000000', '-0.6121134161949157714843750000000', '-0.6083843111991882324218750000000', '-0.3092763721942901611328125000000', '-0.0112248118966817855834960937500', '-0.0808675810694694519042968750000', '-0.0703729316592216491699218750000', '-0.0253221038728952407836914062500', '-0.0238009244203567504882812500000', '0.0271634683012962341308593750000', '-0.0841242074966430664062500000000', '0.0262782163918018341064453125000', '0.0296958256512880325317382812500', '-0.0007281771395355463027954101562', '0.1168996840715408325195312500000', '0.1829702109098434448242187500000', '0.2108681350946426391601562500000', '0.1441614925861358642578125000000', '-0.1648900508880615234375000000000', '-0.1384126693010330200195312500000', '-0.2224391549825668334960937500000', '-0.2340097725391387939453125000000', '-0.2367693334817886352539062500000', '-0.1269688010215759277343750000000', '-0.1247148290276527404785156250000', '-0.1791501939296722412109375000000', '-0.2756859958171844482421875000000', '-0.1825984865427017211914062500000', '-0.3083266615867614746093750000000', '-0.2798136174678802490234375000000', '-0.3622023761272430419921875000000', '-0.3055272102355957031250000000000', '-0.3638403415679931640625000000000', '-0.2994385957717895507812500000000', '-0.2487998306751251220703125000000', '-0.3080122172832489013671875000000', '-0.2845420241355895996093750000000', '-0.3387785553932189941406250000000', '-0.3308073580265045166015625000000', '-0.3916936814785003662109375000000', '-0.3540313243865966796875000000000'], ['-0.0729671567678451538085937500000', '-0.0244195275008678436279296875000', '0.0488294996321201324462890625000', '0.0296263471245765686035156250000', '-0.0253615584224462509155273437500', '-0.0707604214549064636230468750000', '-0.0127987582236528396606445312500', '-0.0262273550033569335937500000000', '0.0418548993766307830810546875000', '-0.0108087072148919105529785156250', '0.0002868612646125257015228271484', '0.0386570468544960021972656250000', '0.0598252043128013610839843750000', '-0.0412366166710853576660156250000', '-0.0474907420575618743896484375000', '0.0492610372602939605712890625000', '0.0098106497898697853088378906250', '0.0595401078462600708007812500000', '-0.0599563717842102050781250000000', '0.0554832145571708679199218750000', '-0.0357495546340942382812500000000', '0.0125820115208625793457031250000', '-0.0419077724218368530273437500000', '0.0313996300101280212402343750000', '-0.0401337407529354095458984375000', '-0.0007600953686051070690155029297', '-0.0419773608446121215820312500000', '0.0263840109109878540039062500000', '0.0531618818640708923339843750000', '0.0024753012694418430328369140625', '-0.0331174917519092559814453125000', '0.0416061915457248687744140625000', '-0.0329616367816925048828125000000', '-0.0765338316559791564941406250000', '-0.0007967987330630421638488769531', '-0.0093509275466203689575195312500', '-0.0220778547227382659912109375000', '0.0028210827149450778961181640625', '-0.0095003377646207809448242187500', '-0.0514765530824661254882812500000', '0.0073527661152184009552001953125', '-0.0495942421257495880126953125000', '0.0309372171759605407714843750000', '0.0266560353338718414306640625000', '0.0339180007576942443847656250000', '0.0042486716993153095245361328125', '0.0128447916358709335327148437500', '-0.0270376764237880706787109375000', '-0.0075467405840754508972167968750', '0.0326487645506858825683593750000', '0.0206189267337322235107421875000', '0.0273824818432331085205078125000', '-0.0233177915215492248535156250000', '-0.0683735460042953491210937500000', '0.0446508191525936126708984375000', '0.0242916867136955261230468750000', '-0.0541738420724868774414062500000', '0.0594611167907714843750000000000', '-0.0554324164986610412597656250000', '0.0170586556196212768554687500000', '-0.0669301673769950866699218750000', '-0.0130967646837234497070312500000', '-0.0758788511157035827636718750000', '0.0033719725906848907470703125000', '-0.0372079908847808837890625000000', '-0.0296700727194547653198242187500', '-0.0335157848894596099853515625000', '-0.0742192342877388000488281250000', '0.0331155285239219665527343750000', '-0.0399206466972827911376953125000', '-0.0650216490030288696289062500000', '0.0104643385857343673706054687500', '-0.0055261775851249694824218750000', '-0.0488661564886569976806640625000', '-0.0560932084918022155761718750000', '0.0560544207692146301269531250000', '0.0461136437952518463134765625000', '0.0085959117859601974487304687500', '0.0266008842736482620239257812500', '0.0155750447884202003479003906250', '-0.0745275616645812988281250000000', '0.0081428391858935356140136718750', '-0.0756608992815017700195312500000', '0.0464386157691478729248046875000', '-0.0146386185660958290100097656250', '0.0087444279342889785766601562500', '-0.0204108078032732009887695312500', '0.0266993753612041473388671875000', '-0.0292814224958419799804687500000', '-0.0072497115470468997955322265625', '0.0518996529281139373779296875000', '0.0541891157627105712890625000000', '0.0205551609396934509277343750000', '-0.0395312234759330749511718750000', '-0.0141437398269772529602050781250', '-0.0332164876163005828857421875000', '-0.0024309414438903331756591796875', '0.0548095554113388061523437500000', '-0.0531901791691780090332031250000', '-0.0521248355507850646972656250000', '0.0315188169479370117187500000000', '-0.0319630578160285949707031250000', '-0.0742111802101135253906250000000', '-0.0670731961727142333984375000000', '-0.0460727475583553314208984375000', '-0.0134127549827098846435546875000', '-0.0180887691676616668701171875000', '0.0373445600271224975585937500000', '-0.0787515267729759216308593750000', '-0.0017570154741406440734863281250', '0.0526676736772060394287109375000', '0.0569798201322555541992187500000', '-0.0221603121608495712280273437500', '-0.0496990419924259185791015625000', '0.0000007373633366114518139511347', '-0.0158535633236169815063476562500', '-0.0156441722065210342407226562500', '-0.0155248763039708137512207031250', '0.0471910983324050903320312500000', '-0.0799106657505035400390625000000', '-0.0810930803418159484863281250000', '0.0239669363945722579956054687500', '-0.0527802929282188415527343750000', '-0.0762850269675254821777343750000', '-0.0587186999619007110595703125000', '-0.0298034250736236572265625000000', '0.0260185599327087402343750000000', '0.0407587625086307525634765625000', '0.0233492162078619003295898437500', '-0.0611494556069374084472656250000', '-0.0393272712826728820800781250000', '0.0480647943913936614990234375000', '-0.0211236197501420974731445312500', '0.0330787375569343566894531250000', '-0.0761693939566612243652343750000', '-0.0231395717710256576538085937500', '0.0069981887936592102050781250000', '-0.0786865279078483581542968750000', '-0.0705177858471870422363281250000', '-0.0158277060836553573608398437500', '-0.0057502426207065582275390625000', '-0.0220857542008161544799804687500', '0.0468093194067478179931640625000', '0.0425731427967548370361328125000', '-0.0298998299986124038696289062500', '0.0009050490916706621646881103516', '-0.0768342837691307067871093750000', '0.0554244406521320343017578125000', '-0.0264134854078292846679687500000', '-0.0709125623106956481933593750000', '0.0139148272573947906494140625000', '0.0033927892800420522689819335938', '0.0226051416248083114624023437500', '0.0151169160380959510803222656250', '-0.0599871166050434112548828125000', '0.0156704485416412353515625000000', '0.0535530224442481994628906250000', '0.0640849694609642028808593750000', '-0.0646120682358741760253906250000', '0.0566168390214443206787109375000', '-0.0175367295742034912109375000000', '0.0455563664436340332031250000000', '0.0330689884722232818603515625000', '-0.0703116133809089660644531250000', '0.0351999513804912567138671875000', '0.0540574006736278533935546875000', '-0.0226005986332893371582031250000', '-0.0338341668248176574707031250000', '-0.0538464672863483428955078125000', '0.0666045546531677246093750000000', '0.0561809726059436798095703125000', '-0.0519343465566635131835937500000', '0.0224193707108497619628906250000', '-0.0049995183944702148437500000000', '-0.0601646602153778076171875000000', '-0.0434985831379890441894531250000', '0.0352816581726074218750000000000', '-0.0234352499246597290039062500000', '-0.0528659000992774963378906250000', '0.0231332555413246154785156250000', '0.0031018331646919250488281250000', '0.0087173357605934143066406250000', '-0.0595955066382884979248046875000', '-0.0662929713726043701171875000000', '0.0391923859715461730957031250000', '0.0205019935965538024902343750000', '-0.0310838073492050170898437500000'], ['0.0681376978754997253417968750000', '0.8559018969535827636718750000000', '0.7260131239891052246093750000000', '0.3079731166362762451171875000000', '0.5338055491447448730468750000000', '0.1020557507872581481933593750000', '-0.1996648162603378295898437500000', '-0.4185141324996948242187500000000', '-0.3514072895050048828125000000000', '-0.0828343853354454040527343750000', '0.2998535931110382080078125000000', '0.2764185369014739990234375000000', '-0.0201948694884777069091796875000', '-0.1437543034553527832031250000000', '-0.0438088998198509216308593750000', '-0.1608371436595916748046875000000', '-0.2275696843862533569335937500000', '-0.1067179590463638305664062500000', '-0.1744011640548706054687500000000', '-0.2667900323867797851562500000000', '-0.4376342892646789550781250000000', '-0.4701091349124908447265625000000', '-0.5178187489509582519531250000000', '-0.6243428587913513183593750000000', '-0.5015538334846496582031250000000', '-0.4043786227703094482421875000000', '-0.2896607518196105957031250000000', '-0.0890320912003517150878906250000', '0.0387605763971805572509765625000', '0.0786087289452552795410156250000', '0.1994968950748443603515625000000', '0.1803025454282760620117187500000', '0.1106422021985054016113281250000', '0.1835915595293045043945312500000', '0.2991456091403961181640625000000', '0.3286168277263641357421875000000', '0.2943428456783294677734375000000', '0.2585468888282775878906250000000', '0.0679050087928771972656250000000', '-0.0351996868848800659179687500000', '-0.1883647888898849487304687500000', '-0.0188881289213895797729492187500', '-0.0830875635147094726562500000000', '-0.1018592640757560729980468750000', '-0.1521909981966018676757812500000', '-0.2477117478847503662109375000000', '-0.3397259414196014404296875000000', '-0.1578489392995834350585937500000', '-0.3251903951168060302734375000000', '-0.3606945872306823730468750000000', '-0.2677105963230133056640625000000', '-0.2870059609413146972656250000000', '-0.3301145434379577636718750000000', '-0.1329170465469360351562500000000', '-0.2106465697288513183593750000000', '-0.2316919118165969848632812500000', '0.0115834809839725494384765625000', '0.1859925091266632080078125000000', '0.0472143925726413726806640625000', '-0.0494224317371845245361328125000', '-0.0082036545500159263610839843750', '-0.0458870343863964080810546875000', '0.0303431898355484008789062500000', '0.1626170277595520019531250000000', '-0.0808572322130203247070312500000', '0.0433107577264308929443359375000', '-0.0841075181961059570312500000000', '-0.1247443035244941711425781250000', '-0.0638664439320564270019531250000', '0.0845976397395133972167968750000', '0.2125733792781829833984375000000', '0.2128846347332000732421875000000', '0.0547566115856170654296875000000', '-0.0254792198538780212402343750000', '-0.0688479542732238769531250000000', '-0.0744652897119522094726562500000', '0.1402031332254409790039062500000', '0.0284470319747924804687500000000', '0.1427726745605468750000000000000', '-0.0268209446221590042114257812500', '0.0730049759149551391601562500000', '-0.0212713032960891723632812500000', '0.0678574293851852416992187500000', '0.0376944690942764282226562500000', '-0.0223717857152223587036132812500', '-0.0427199378609657287597656250000', '-0.0778595730662345886230468750000', '-0.0498442277312278747558593750000', '0.1160394996404647827148437500000', '-0.0416299887001514434814453125000', '-0.0516260489821434020996093750000', '-0.2806946933269500732421875000000', '-0.0581429488956928253173828125000', '-0.2673728168010711669921875000000', '-0.3000967204570770263671875000000', '-0.1379347890615463256835937500000', '-0.0920988395810127258300781250000', '-0.0084325205534696578979492187500', '-0.1053818091750144958496093750000', '-0.1257591098546981811523437500000', '-0.0087862275540828704833984375000', '-0.0793617218732833862304687500000', '-0.1118260622024536132812500000000', '-0.1255584955215454101562500000000', '-0.0869023054838180541992187500000', '-0.0303230620920658111572265625000', '-0.0928086340427398681640625000000', '0.0481594242155551910400390625000', '0.1981627047061920166015625000000', '-0.0945002585649490356445312500000', '-0.0181840714067220687866210937500', '0.0570126213133335113525390625000', '0.0762364938855171203613281250000', '-0.0203620921820402145385742187500', '-0.0112907458096742630004882812500', '0.0361482203006744384765625000000', '0.0683969482779502868652343750000', '0.0409397110342979431152343750000', '-0.0115482034161686897277832031250', '-0.0902731716632843017578125000000', '0.0055363127030432224273681640625', '0.1673088073730468750000000000000', '0.2346350997686386108398437500000', '0.0255131535232067108154296875000', '0.0420710109174251556396484375000', '0.1557809412479400634765625000000', '-0.0547719933092594146728515625000', '0.0206432137638330459594726562500', '0.0749796256422996520996093750000', '-0.1549348682165145874023437500000', '-0.0371837280690670013427734375000', '0.0427651256322860717773437500000', '0.0647940412163734436035156250000', '-0.0918573886156082153320312500000', '-0.3378398120403289794921875000000', '0.0851969420909881591796875000000', '0.6881664395332336425781250000000', '0.0314118824899196624755859375000', '-0.1372915655374526977539062500000', '-0.1834196448326110839843750000000', '0.0676569640636444091796875000000', '-0.0942769795656204223632812500000', '-0.2234839498996734619140625000000', '-0.2012398242950439453125000000000', '0.0565393082797527313232421875000', '-0.2842575311660766601562500000000', '0.0033290877472609281539916992188', '0.3881840705871582031250000000000', '0.2177389115095138549804687500000', '0.0753731653094291687011718750000', '0.0455500148236751556396484375000', '-0.0490461438894271850585937500000', '0.1338451355695724487304687500000', '-0.1944784969091415405273437500000', '-0.0205354876816272735595703125000', '-0.0137536274269223213195800781250', '-0.1602398902177810668945312500000', '-0.4825560152530670166015625000000', '-0.1595068424940109252929687500000', '0.1107962876558303833007812500000', '-0.1987522691488265991210937500000', '0.1707540005445480346679687500000', '0.3444326519966125488281250000000', '0.1251119971275329589843750000000', '-0.1515012383460998535156250000000', '-0.1315736770629882812500000000000', '-0.5915562510490417480468750000000', '-0.3987554013729095458984375000000', '-0.4959952831268310546875000000000', '-0.5158979296684265136718750000000', '-0.6200569272041320800781250000000', '-0.4695445299148559570312500000000', '-0.2534968852996826171875000000000', '-0.1971616595983505249023437500000', '-0.4406893551349639892578125000000', '-0.3172669708728790283203125000000', '-0.0323105305433273315429687500000', '0.0465760156512260437011718750000', '-0.4604192078113555908203125000000', '-0.0010946015827357769012451171875', '-0.0413250364363193511962890625000', '-0.1257143169641494750976562500000', '-0.0171391218900680541992187500000', '-0.0331000834703445434570312500000', '0.1430204361677169799804687500000', '0.0089468350633978843688964843750', '-0.1929305493831634521484375000000'], ['-0.2835061848163604736328125000000', '-0.0489302873611450195312500000000', '0.0828806757926940917968750000000', '-0.5135013461112976074218750000000', '-1.3258675336837768554687500000000', '-1.6372715234756469726562500000000', '-1.1953172683715820312500000000000', '-1.1106643676757812500000000000000', '-0.7591972947120666503906250000000', '-0.1651661843061447143554687500000', '0.0620599314570426940917968750000', '0.2462106645107269287109375000000', '0.2613355815410614013671875000000', '0.2065403461456298828125000000000', '0.1535144150257110595703125000000', '0.0873900577425956726074218750000', '0.2490895688533782958984375000000', '0.3897055983543395996093750000000', '0.2310799062252044677734375000000', '0.4638816416263580322265625000000', '0.3262723088264465332031250000000', '0.4235688447952270507812500000000', '0.3976021111011505126953125000000', '0.3629869818687438964843750000000', '0.2637022733688354492187500000000', '0.3087997734546661376953125000000', '0.2527510821819305419921875000000', '0.2963812053203582763671875000000', '0.2062692046165466308593750000000', '0.1497570723295211791992187500000', '0.0455679297447204589843750000000', '0.0339229628443717956542968750000', '-0.0234668273478746414184570312500', '-0.0675838589668273925781250000000', '-0.1411931663751602172851562500000', '-0.3243978619575500488281250000000', '-0.4221254289150238037109375000000', '-0.4646431803703308105468750000000', '-0.3243688941001892089843750000000', '-0.2451893687248229980468750000000', '-0.2438501715660095214843750000000', '-0.1461161524057388305664062500000', '-0.1458032429218292236328125000000', '0.0874590650200843811035156250000', '0.0425270423293113708496093750000', '0.0179366692900657653808593750000', '-0.0521308183670043945312500000000', '-0.1504047363996505737304687500000', '0.0387854538857936859130859375000', '0.0698922947049140930175781250000', '0.0565481334924697875976562500000', '0.1441355198621749877929687500000', '-0.0258266404271125793457031250000', '0.0354559198021888732910156250000', '0.0856431722640991210937500000000', '0.0010266348253935575485229492188', '-0.0359544605016708374023437500000', '0.0442819856107234954833984375000', '0.0899623185396194458007812500000', '0.0913408324122428894042968750000', '-0.0894694551825523376464843750000', '0.0498796924948692321777343750000', '0.0307311955839395523071289062500', '0.0137246847152709960937500000000', '0.0839908048510551452636718750000', '0.1361115425825119018554687500000', '0.1947374045848846435546875000000', '0.0223541315644979476928710937500', '0.0745339766144752502441406250000', '0.1972974687814712524414062500000', '0.0696071386337280273437500000000', '0.0345247387886047363281250000000', '0.1224180385470390319824218750000', '0.0046849809587001800537109375000', '-0.0267036892473697662353515625000', '-0.0315997041761875152587890625000', '0.0469479411840438842773437500000', '-0.0660940483212471008300781250000', '0.0441678948700428009033203125000', '0.1076389849185943603515625000000', '0.1159925162792205810546875000000', '-0.1065951883792877197265625000000', '-0.1334156394004821777343750000000', '0.0821719020605087280273437500000', '-0.0181266330182552337646484375000', '0.1689880192279815673828125000000', '0.0668565034866333007812500000000', '-0.0316751115024089813232421875000', '-0.0084846308454871177673339843750', '0.1026546880602836608886718750000', '0.3285645842552185058593750000000', '0.2427745461463928222656250000000', '-0.0336410962045192718505859375000', '-0.3927884697914123535156250000000', '-0.5929389595985412597656250000000', '-0.3719362020492553710937500000000', '-0.3266995251178741455078125000000', '-0.1386432647705078125000000000000', '-0.4758414626121520996093750000000', '-0.3009237349033355712890625000000', '-0.2642329633235931396484375000000', '-0.3098996579647064208984375000000', '-0.3450460135936737060546875000000', '-0.3123827576637268066406250000000', '-0.5427228212356567382812500000000', '-0.5079299807548522949218750000000', '-0.4585736691951751708984375000000', '-0.4125223755836486816406250000000', '-0.3915795981884002685546875000000', '-0.2439820766448974609375000000000', '-0.2418710291385650634765625000000', '-0.1804260164499282836914062500000', '-0.1694617271423339843750000000000', '-0.0631958842277526855468750000000', '-0.1320359706878662109375000000000', '-0.0388518907129764556884765625000', '-0.0278681553900241851806640625000', '-0.0290297418832778930664062500000', '-0.0617309808731079101562500000000', '-0.0779427662491798400878906250000', '-0.2229053378105163574218750000000', '-0.1095292121171951293945312500000', '-0.1167456582188606262207031250000', '-0.0618303418159484863281250000000', '-0.2399940341711044311523437500000', '-0.1108008101582527160644531250000', '-0.1544722467660903930664062500000', '-0.1935269385576248168945312500000', '-0.1055844128131866455078125000000', '-0.0313496962189674377441406250000', '0.1252291798591613769531250000000', '0.0882308259606361389160156250000', '0.1069313809275627136230468750000', '0.1926424205303192138671875000000', '0.1215950250625610351562500000000', '0.2781087756156921386718750000000', '0.1601860374212265014648437500000', '0.3018229007720947265625000000000', '0.2843905687332153320312500000000', '0.3416321575641632080078125000000', '0.2148467004299163818359375000000', '0.4572371840476989746093750000000', '0.3608196079730987548828125000000', '0.3342612087726593017578125000000', '0.3849358856678009033203125000000', '0.2433826625347137451171875000000', '0.0382453948259353637695312500000', '0.1868834793567657470703125000000', '0.2596698105335235595703125000000', '0.4889959990978240966796875000000', '0.1205907464027404785156250000000', '0.1969395875930786132812500000000', '0.2245682924985885620117187500000', '0.3260751962661743164062500000000', '0.1979374587535858154296875000000', '0.3946023881435394287109375000000', '0.3495199084281921386718750000000', '0.3067233562469482421875000000000', '0.3024893999099731445312500000000', '0.2438776642084121704101562500000', '0.3176605999469757080078125000000', '0.0971584171056747436523437500000', '0.0268479362130165100097656250000', '0.0935167297720909118652343750000', '0.1618428975343704223632812500000', '0.1873392015695571899414062500000', '0.0581393092870712280273437500000', '-0.0339735150337219238281250000000', '0.0419895537197589874267578125000', '0.1004218980669975280761718750000', '0.0371083617210388183593750000000', '-0.2258974760770797729492187500000', '-0.1279683113098144531250000000000', '0.0186393912881612777709960937500', '-0.0428062416613101959228515625000', '-0.1503347307443618774414062500000', '-0.1293397992849349975585937500000', '-0.1799658983945846557617187500000', '-0.2898580133914947509765625000000', '-0.2008331120014190673828125000000', '-0.0919607281684875488281250000000', '-0.0751859024167060852050781250000', '-0.2353212982416152954101562500000', '-0.2712191343307495117187500000000', '-0.1915664821863174438476562500000', '-0.1113125532865524291992187500000', '-0.2342562228441238403320312500000'], ['-0.0131913544610142707824707031250', '-0.0112725030630826950073242187500', '0.0235883947461843490600585937500', '-0.0693207457661628723144531250000', '-0.0227027256041765213012695312500', '-0.0716169923543930053710937500000', '-0.0433256141841411590576171875000', '-0.0186242256313562393188476562500', '-0.0351303666830062866210937500000', '-0.0030371614266186952590942382812', '0.0203427411615848541259765625000', '0.0373306088149547576904296875000', '-0.0066421264782547950744628906250', '-0.0541393719613552093505859375000', '0.0366840958595275878906250000000', '-0.0381666347384452819824218750000', '-0.0251307561993598937988281250000', '0.0125405583530664443969726562500', '-0.0264556873589754104614257812500', '0.0165084674954414367675781250000', '0.0425612144172191619873046875000', '0.0264074336737394332885742187500', '0.0032628769986331462860107421875', '0.0178522616624832153320312500000', '-0.0163745395839214324951171875000', '0.0507638454437255859375000000000', '-0.0660363510251045227050781250000', '-0.0348698720335960388183593750000', '0.0021220583003014326095581054688', '0.0131335966289043426513671875000', '0.0247289258986711502075195312500', '-0.0731556192040443420410156250000', '0.0344140566885471343994140625000', '-0.0456066429615020751953125000000', '-0.0107157463207840919494628906250', '-0.0195481106638908386230468750000', '0.0251223985105752944946289062500', '0.0194622185081243515014648437500', '-0.0510122701525688171386718750000', '-0.0645172521471977233886718750000', '0.0039025663863867521286010742188', '-0.0171040594577789306640625000000', '-0.0080099701881408691406250000000', '-0.0322349965572357177734375000000', '-0.0101803205907344818115234375000', '-0.0147750321775674819946289062500', '-0.0053929672576487064361572265625', '0.0017540300032123923301696777344', '-0.0108835548162460327148437500000', '-0.0131791457533836364746093750000', '-0.0356814451515674591064453125000', '-0.0069161280989646911621093750000', '-0.0384341403841972351074218750000', '0.0276671368628740310668945312500', '0.0417628511786460876464843750000', '0.0342714861035346984863281250000', '-0.0645625367760658264160156250000', '-0.0462811291217803955078125000000', '-0.0324732437729835510253906250000', '-0.0360398478806018829345703125000', '-0.0579657107591629028320312500000', '-0.0701811388134956359863281250000', '-0.0619229264557361602783203125000', '0.0555461011826992034912109375000', '-0.0784830972552299499511718750000', '0.0196298751980066299438476562500', '0.0389587692916393280029296875000', '-0.0671686083078384399414062500000', '0.0245312992483377456665039062500', '0.0204929355531930923461914062500', '0.0279329400509595870971679687500', '0.0192340072244405746459960937500', '-0.0605925358831882476806640625000', '-0.0333266705274581909179687500000', '0.0422746576368808746337890625000', '-0.0713289529085159301757812500000', '0.0350384972989559173583984375000', '0.0190654397010803222656250000000', '-0.0579758994281291961669921875000', '-0.0435025356709957122802734375000', '0.0614821873605251312255859375000', '-0.0557094961404800415039062500000', '0.0030120399314910173416137695312', '-0.0384742133319377899169921875000', '-0.0443133190274238586425781250000', '0.0023910391610115766525268554688', '-0.0681196823716163635253906250000', '-0.0525231659412384033203125000000', '0.0066523449495434761047363281250', '-0.0149881578981876373291015625000', '-0.0725936219096183776855468750000', '0.0100235184654593467712402343750', '0.0597010478377342224121093750000', '0.0143349729478359222412109375000', '0.0280881393700838088989257812500', '-0.0594858899712562561035156250000', '0.0388016812503337860107421875000', '-0.0734211280941963195800781250000', '-0.0705667957663536071777343750000', '-0.0684311985969543457031250000000', '-0.0460144318640232086181640625000', '0.0064754541963338851928710937500', '0.0032245046459138393402099609375', '-0.0563006997108459472656250000000', '0.0205175243318080902099609375000', '-0.0183091312646865844726562500000', '0.0488668233156204223632812500000', '0.0031933933496475219726562500000', '-0.0164893716573715209960937500000', '0.0653685182332992553710937500000', '0.0009944438934326171875000000000', '-0.0644866898655891418457031250000', '0.0270445644855499267578125000000', '0.0229560211300849914550781250000', '-0.0179567113518714904785156250000', '0.0080945864319801330566406250000', '-0.0316434688866138458251953125000', '-0.0656885355710983276367187500000', '0.0038882941007614135742187500000', '0.0257261246442794799804687500000', '0.0574685335159301757812500000000', '-0.0559699088335037231445312500000', '-0.0398889407515525817871093750000', '-0.0639002472162246704101562500000', '-0.0437555238604545593261718750000', '-0.0423130281269550323486328125000', '0.0511880144476890563964843750000', '-0.0295372605323791503906250000000', '-0.0254070572555065155029296875000', '-0.0282165519893169403076171875000', '-0.0451163239777088165283203125000', '-0.0544167496263980865478515625000', '0.0352579131722450256347656250000', '0.0374160036444664001464843750000', '0.0014730989933013916015625000000', '-0.0370642989873886108398437500000', '0.0208003446459770202636718750000', '-0.0326883494853973388671875000000', '0.0659524649381637573242187500000', '0.0075254663825035095214843750000', '0.0105392411351203918457031250000', '0.0597561597824096679687500000000', '-0.0168688334524631500244140625000', '-0.0691636204719543457031250000000', '-0.0528426468372344970703125000000', '-0.0661100447177886962890625000000', '-0.0395216234028339385986328125000', '-0.0286438986659049987792968750000', '-0.0203290060162544250488281250000', '0.0007678046822547912597656250000', '-0.0294141881167888641357421875000', '-0.0447062477469444274902343750000', '-0.0060404762625694274902343750000', '0.0016488432884216308593750000000', '0.0691313296556472778320312500000', '0.0222069993615150451660156250000', '0.0067393332719802856445312500000', '-0.0726752430200576782226562500000', '0.0233164653182029724121093750000', '0.0567059963941574096679687500000', '-0.0268120057880878448486328125000', '-0.0688126161694526672363281250000', '-0.0721652880311012268066406250000', '0.0244403183460235595703125000000', '0.0494509190320968627929687500000', '0.0357330292463302612304687500000', '0.0305164530873298645019531250000', '-0.0085549801588058471679687500000', '-0.0711160227656364440917968750000', '-0.0672733411192893981933593750000', '-0.0283074155449867248535156250000', '0.0127747878432273864746093750000', '-0.0164410434663295745849609375000', '0.0684784501791000366210937500000', '0.0063488483428955078125000000000', '0.0294576361775398254394531250000', '-0.0563896894454956054687500000000', '-0.0287600569427013397216796875000', '-0.0725945532321929931640625000000', '-0.0223823823034763336181640625000', '-0.0506686419248580932617187500000', '0.0700821280479431152343750000000', '-0.0139149986207485198974609375000', '-0.0092573985457420349121093750000', '-0.0287138298153877258300781250000', '-0.0021727681159973144531250000000', '-0.0008344948291778564453125000000'], ['-0.0226502213627099990844726562500', '0.0081721711903810501098632812500', '-0.0829612836241722106933593750000', '0.0174866523593664169311523437500', '-0.0128557337448000907897949218750', '0.0512403585016727447509765625000', '-0.0893969312310218811035156250000', '-0.0841794386506080627441406250000', '-0.0002360119688091799616813659668', '0.0165659841150045394897460937500', '-0.0140304761007428169250488281250', '0.0556308180093765258789062500000', '-0.0666694641113281250000000000000', '0.0039682569913566112518310546875', '0.0496443510055541992187500000000', '-0.0455823168158531188964843750000', '-0.0185712799429893493652343750000', '-0.0413414053618907928466796875000', '0.0143252313137054443359375000000', '-0.0401673763990402221679687500000', '-0.0771568790078163146972656250000', '-0.0629425346851348876953125000000', '-0.0481634214520454406738281250000', '-0.0214749444276094436645507812500', '-0.0441169179975986480712890625000', '0.0142343211919069290161132812500', '-0.0325763188302516937255859375000', '-0.0422393307089805603027343750000', '0.0418310649693012237548828125000', '0.0464640110731124877929687500000', '-0.0112333465367555618286132812500', '0.0423244088888168334960937500000', '-0.0447727181017398834228515625000', '0.0336527489125728607177734375000', '-0.0185173042118549346923828125000', '-0.0120435990393161773681640625000', '-0.0484879687428474426269531250000', '-0.0581506080925464630126953125000', '-0.0660850927233695983886718750000', '0.0403231121599674224853515625000', '-0.0144038815051317214965820312500', '-0.0831436067819595336914062500000', '-0.0152020798996090888977050781250', '-0.0264399778097867965698242187500', '-0.0475632287561893463134765625000', '-0.0300031937658786773681640625000', '-0.0573466382920742034912109375000', '-0.0829554796218872070312500000000', '-0.0423773564398288726806640625000', '0.0336542353034019470214843750000', '-0.0071051097474992275238037109375', '-0.0584998466074466705322265625000', '-0.0074596591293811798095703125000', '0.0132176000624895095825195312500', '0.0278478711843490600585937500000', '-0.0312567241489887237548828125000', '-0.0070649343542754650115966796875', '0.0512133017182350158691406250000', '-0.0109947500750422477722167968750', '-0.0359651520848274230957031250000', '0.0461032353341579437255859375000', '0.0301924925297498703002929687500', '-0.0663335472345352172851562500000', '-0.0376353524625301361083984375000', '-0.0050228252075612545013427734375', '0.0160688981413841247558593750000', '-0.0410346649587154388427734375000', '-0.0707224607467651367187500000000', '0.0400212667882442474365234375000', '-0.0404128953814506530761718750000', '-0.0322979800403118133544921875000', '-0.0704795867204666137695312500000', '-0.0330059565603733062744140625000', '-0.0136461714282631874084472656250', '0.0169828645884990692138671875000', '-0.0429223813116550445556640625000', '-0.0078833270817995071411132812500', '-0.0118864448741078376770019531250', '-0.0495842061936855316162109375000', '0.0322977937757968902587890625000', '-0.0695497170090675354003906250000', '-0.0760308504104614257812500000000', '0.0350385606288909912109375000000', '0.0005347799742594361305236816406', '-0.0430169776082038879394531250000', '-0.0603180788457393646240234375000', '0.0078840730711817741394042968750', '0.0527085959911346435546875000000', '-0.0150448037311434745788574218750', '0.0241653304547071456909179687500', '-0.0133514143526554107666015625000', '-0.0675359144806861877441406250000', '0.0090493066236376762390136718750', '-0.0669591650366783142089843750000', '-0.0636247247457504272460937500000', '-0.0173639580607414245605468750000', '0.0030550146475434303283691406250', '-0.0092149795964360237121582031250', '0.0019533701706677675247192382812', '-0.0028259870596230030059814453125', '-0.0376055687665939331054687500000', '-0.0437615439295768737792968750000', '0.0405054762959480285644531250000', '0.0384972430765628814697265625000', '0.0538457594811916351318359375000', '-0.0590114444494247436523437500000', '-0.0734583884477615356445312500000', '0.0217792317271232604980468750000', '-0.0218893643468618392944335937500', '0.0596064068377017974853515625000', '-0.0469896867871284484863281250000', '-0.0516999028623104095458984375000', '0.0412372909486293792724609375000', '0.0056629688479006290435791015625', '0.0208294466137886047363281250000', '0.0353926420211791992187500000000', '-0.0349677987396717071533203125000', '-0.0597486272454261779785156250000', '0.0283603053539991378784179687500', '-0.0658667981624603271484375000000', '-0.0139564145356416702270507812500', '-0.0039052916690707206726074218750', '-0.0687074661254882812500000000000', '-0.0290981773287057876586914062500', '-0.0280715543776750564575195312500', '0.0246596615761518478393554687500', '0.0408001765608787536621093750000', '0.0495637692511081695556640625000', '-0.0371600948274135589599609375000', '0.0669914931058883666992187500000', '-0.0153038678690791130065917968750', '0.0454492084681987762451171875000', '-0.0371005199849605560302734375000', '0.0241502970457077026367187500000', '-0.0063099958933889865875244140625', '0.0110764466226100921630859375000', '0.0377079844474792480468750000000', '0.0393630154430866241455078125000', '0.0686769410967826843261718750000', '-0.0112280892208218574523925781250', '0.0085831983014941215515136718750', '0.0477534569799900054931640625000', '0.0682858377695083618164062500000', '-0.0088093439117074012756347656250', '-0.0416760183870792388916015625000', '-0.0444020107388496398925781250000', '-0.0475922450423240661621093750000', '0.0762942060828208923339843750000', '0.0455335825681686401367187500000', '0.0033855102956295013427734375000', '-0.0226276405155658721923828125000', '0.0575253516435623168945312500000', '0.0519190877676010131835937500000', '-0.0482441745698451995849609375000', '-0.0340936742722988128662109375000', '-0.0466856136918067932128906250000', '-0.0428570583462715148925781250000', '0.0340741686522960662841796875000', '0.0784406960010528564453125000000', '-0.0541900023818016052246093750000', '-0.0416564159095287322998046875000', '-0.0009069516090676188468933105469', '0.0416921265423297882080078125000', '0.0079230237752199172973632812500', '0.0379413738846778869628906250000', '-0.0565391220152378082275390625000', '-0.0525098033249378204345703125000', '0.0541927181184291839599609375000', '0.0101763149723410606384277343750', '0.0181645341217517852783203125000', '-0.0546956509351730346679687500000', '0.0829846262931823730468750000000', '0.0465183183550834655761718750000', '0.0339458398520946502685546875000', '-0.0255137681961059570312500000000', '0.0404191724956035614013671875000', '0.0508198998868465423583984375000', '-0.0455690175294876098632812500000', '-0.0306920949369668960571289062500', '0.0037277117371559143066406250000', '0.0291018411517143249511718750000', '-0.0096515938639640808105468750000', '0.0507513582706451416015625000000', '0.0618187785148620605468750000000', '-0.0029588118195533752441406250000', '0.0205681249499320983886718750000', '-0.0729202032089233398437500000000'], ['0.2445105910301208496093750000000', '0.5957695245742797851562500000000', '0.0019308214541524648666381835938', '-0.1594636589288711547851562500000', '0.4367689788341522216796875000000', '-0.0068960287608206272125244140625', '-0.2213056832551956176757812500000', '-0.1137596592307090759277343750000', '-0.1383315920829772949218750000000', '0.1720003783702850341796875000000', '-0.0218248106539249420166015625000', '-0.2905733287334442138671875000000', '-0.5192850232124328613281250000000', '-0.4228229820728302001953125000000', '-0.3453392982482910156250000000000', '-0.1022530645132064819335937500000', '-0.2475430518388748168945312500000', '0.0006726791034452617168426513672', '-0.0344218201935291290283203125000', '-0.0032227712217718362808227539062', '0.0406355224549770355224609375000', '0.2798683643341064453125000000000', '0.1799314469099044799804687500000', '0.2228817194700241088867187500000', '0.2047602981328964233398437500000', '0.2511397898197174072265625000000', '0.1745357662439346313476562500000', '0.2248247712850570678710937500000', '0.0816064551472663879394531250000', '-0.0850344374775886535644531250000', '-0.2287676483392715454101562500000', '-0.4947942197322845458984375000000', '-0.5566608309745788574218750000000', '-0.7739623785018920898437500000000', '-0.7181739211082458496093750000000', '-0.4922348260879516601562500000000', '-0.5063945055007934570312500000000', '-0.2194095253944396972656250000000', '-0.1563164144754409790039062500000', '-0.2095940560102462768554687500000', '-0.0948840901255607604980468750000', '0.0632266700267791748046875000000', '-0.0547078624367713928222656250000', '0.0686381831765174865722656250000', '-0.0637107565999031066894531250000', '0.0376280769705772399902343750000', '0.0425711348652839660644531250000', '0.1197506338357925415039062500000', '0.1869708299636840820312500000000', '0.1751005053520202636718750000000', '-0.0978557765483856201171875000000', '-0.2005419433116912841796875000000', '-0.4166482686996459960937500000000', '-0.3400347530841827392578125000000', '-0.5071086883544921875000000000000', '-0.3266708254814147949218750000000', '-0.5691908597946166992187500000000', '-0.4550733864307403564453125000000', '-0.5259625315666198730468750000000', '-0.3350427746772766113281250000000', '-0.4387609064579010009765625000000', '-0.4458202123641967773437500000000', '-0.3537872135639190673828125000000', '-0.1608505547046661376953125000000', '-0.3686023652553558349609375000000', '-0.1997263729572296142578125000000', '-0.1650260537862777709960937500000', '-0.1272897571325302124023437500000', '-0.1795998066663742065429687500000', '-0.2263255566358566284179687500000', '-0.3308895528316497802734375000000', '-0.3924823403358459472656250000000', '-0.3806204795837402343750000000000', '-0.2933901846408843994140625000000', '-0.3993407487869262695312500000000', '-0.4061026275157928466796875000000', '-0.3615925908088684082031250000000', '-0.1914818137884140014648437500000', '0.1401589810848236083984375000000', '0.2969182729721069335937500000000', '0.5945405960083007812500000000000', '0.5846670269966125488281250000000', '0.4886422753334045410156250000000', '0.3431465923786163330078125000000', '0.2643447816371917724609375000000', '0.3314966261386871337890625000000', '0.4183598458766937255859375000000', '0.5116783380508422851562500000000', '0.3285313844680786132812500000000', '0.3877716660499572753906250000000', '0.1354345828294754028320312500000', '-0.0159184858202934265136718750000', '0.2102371156215667724609375000000', '0.2410714179277420043945312500000', '0.2093243449926376342773437500000', '0.1796126514673233032226562500000', '0.1072183772921562194824218750000', '0.1491522490978240966796875000000', '0.0970970466732978820800781250000', '0.0484942160546779632568359375000', '-0.0426274649798870086669921875000', '0.1917620301246643066406250000000', '0.0121176531538367271423339843750', '0.0488218218088150024414062500000', '-0.0045655672438442707061767578125', '0.1868043839931488037109375000000', '0.1600219011306762695312500000000', '0.0352625362575054168701171875000', '-0.0092888297513127326965332031250', '-0.1215249374508857727050781250000', '0.0322802774608135223388671875000', '0.1104281097650527954101562500000', '0.2659194767475128173828125000000', '0.1878027170896530151367187500000', '-0.0476081557571887969970703125000', '0.1756284385919570922851562500000', '0.1954837590456008911132812500000', '0.3583075404167175292968750000000', '-0.1524041146039962768554687500000', '-0.1872782558202743530273437500000', '0.0462318770587444305419921875000', '0.0102186668664216995239257812500', '-0.2630092501640319824218750000000', '-0.2424466609954833984375000000000', '-0.2295519411563873291015625000000', '-0.2111314386129379272460937500000', '-0.3692060708999633789062500000000', '-0.3663156032562255859375000000000', '-0.3250222802162170410156250000000', '-0.1469763964414596557617187500000', '0.0095264986157417297363281250000', '-0.0999931097030639648437500000000', '-0.1131277456879615783691406250000', '0.3449353873729705810546875000000', '0.4628621935844421386718750000000', '0.2000004053115844726562500000000', '0.1537131071090698242187500000000', '0.1209504678845405578613281250000', '0.2638623118400573730468750000000', '0.6188024878501892089843750000000', '0.4302063882350921630859375000000', '-0.0375391952693462371826171875000', '-0.3732175529003143310546875000000', '-0.8104344010353088378906250000000', '-0.5871460437774658203125000000000', '-0.5175180435180664062500000000000', '-0.1390977501869201660156250000000', '-0.0648746564984321594238281250000', '-0.2006265074014663696289062500000', '0.0223030243068933486938476562500', '0.1098585054278373718261718750000', '0.0981425717473030090332031250000', '0.2215958833694458007812500000000', '0.1774871200323104858398437500000', '0.2262248992919921875000000000000', '0.0569838993251323699951171875000', '-0.0534471310675144195556640625000', '-0.0244223270565271377563476562500', '0.1017537489533424377441406250000', '0.2409036010503768920898437500000', '0.0968366488814353942871093750000', '0.2768901288509368896484375000000', '0.1178263500332832336425781250000', '0.1979352533817291259765625000000', '-0.2730172574520111083984375000000', '0.3775612711906433105468750000000', '0.2069367915391921997070312500000', '-0.3252957165241241455078125000000', '-0.4995875060558319091796875000000', '-0.1294317394495010375976562500000', '-0.2460424005985260009765625000000', '-0.2993824481964111328125000000000', '-0.3725179433822631835937500000000', '-0.1518236398696899414062500000000', '-0.2998969554901123046875000000000', '-0.3403014838695526123046875000000', '-0.3436124026775360107421875000000', '-0.4091924428939819335937500000000', '-0.3164906203746795654296875000000', '-0.4004517793655395507812500000000', '0.0179978422820568084716796875000', '0.0716704204678535461425781250000', '0.0455451011657714843750000000000', '-0.0921744927763938903808593750000', '-0.0096201999112963676452636718750', '0.0491380691528320312500000000000', '0.1346300542354583740234375000000'], ['0.4814220070838928222656250000000', '-0.0147786391898989677429199218750', '-0.4206057190895080566406250000000', '-0.2702324986457824707031250000000', '0.3217232823371887207031250000000', '0.1042646169662475585937500000000', '-0.2284527271986007690429687500000', '-0.3678694367408752441406250000000', '-0.5013251900672912597656250000000', '-0.2548057436943054199218750000000', '-0.1757604628801345825195312500000', '0.0159386117011308670043945312500', '-0.0199246350675821304321289062500', '-0.2269189953804016113281250000000', '-0.2192489355802536010742187500000', '0.0111343953758478164672851562500', '-0.0190460570156574249267578125000', '-0.0644282028079032897949218750000', '-0.1058771088719367980957031250000', '0.1264796406030654907226562500000', '0.0441029444336891174316406250000', '0.1229598596692085266113281250000', '-0.1216418221592903137207031250000', '0.0793001875281333923339843750000', '0.0014241117751225829124450683594', '-0.1141653731465339660644531250000', '-0.0047198478132486343383789062500', '0.0882778316736221313476562500000', '0.1078352257609367370605468750000', '0.2828029096126556396484375000000', '0.3819310665130615234375000000000', '0.3312378823757171630859375000000', '0.3352536261081695556640625000000', '0.3036754131317138671875000000000', '0.0241828989237546920776367187500', '0.0382946394383907318115234375000', '-0.1731224358081817626953125000000', '-0.1987589448690414428710937500000', '-0.4312457144260406494140625000000', '-0.2981243431568145751953125000000', '-0.4860073626041412353515625000000', '-0.3721570968627929687500000000000', '-0.6144290566444396972656250000000', '-0.4403935372829437255859375000000', '-0.6431075930595397949218750000000', '-0.4757340848445892333984375000000', '-0.6156995892524719238281250000000', '-0.4552694559097290039062500000000', '-0.6295614838600158691406250000000', '-0.4956777989864349365234375000000', '-0.4284938275814056396484375000000', '-0.3647901117801666259765625000000', '-0.2101716995239257812500000000000', '-0.3515295982360839843750000000000', '-0.3988021910190582275390625000000', '-0.4732691645622253417968750000000', '-0.3821893632411956787109375000000', '-0.2182916104793548583984375000000', '0.1041587591171264648437500000000', '0.4022588133811950683593750000000', '0.5709612965583801269531250000000', '0.6116731762886047363281250000000', '0.4542800486087799072265625000000', '0.3571011126041412353515625000000', '0.2786855101585388183593750000000', '0.3151500523090362548828125000000', '0.2580818533897399902343750000000', '0.2336585521697998046875000000000', '0.1774403452873229980468750000000', '-0.1920202523469924926757812500000', '-0.2122377604246139526367187500000', '-0.3210468292236328125000000000000', '-0.3080693185329437255859375000000', '-0.0586194917559623718261718750000', '0.1560792773962020874023437500000', '0.4411675930023193359375000000000', '0.4579656124114990234375000000000', '0.3055095374584197998046875000000', '0.2803782224655151367187500000000', '0.2163169831037521362304687500000', '0.2722741663455963134765625000000', '0.0951432213187217712402343750000', '-0.0966808944940567016601562500000', '-0.0892859622836112976074218750000', '0.0490079373121261596679687500000', '0.0844180285930633544921875000000', '0.0699794068932533264160156250000', '0.1305648088455200195312500000000', '0.2419080287218093872070312500000', '0.0913426727056503295898437500000', '0.1603132784366607666015625000000', '0.1098240762948989868164062500000', '-0.0335555747151374816894531250000', '-0.0480074658989906311035156250000', '0.1222950965166091918945312500000', '-0.1672131717205047607421875000000', '-0.4185650646686553955078125000000', '-0.2722238004207611083984375000000', '-0.0666161403059959411621093750000', '0.2986917197704315185546875000000', '0.5621041655540466308593750000000', '0.0891780108213424682617187500000', '0.1473629176616668701171875000000', '0.2241340577602386474609375000000', '0.1629236042499542236328125000000', '0.1412695497274398803710937500000', '0.2175498455762863159179687500000', '-0.0333837307989597320556640625000', '-0.0141470348462462425231933593750', '-0.2170815765857696533203125000000', '-0.2035307437181472778320312500000', '-0.2011853009462356567382812500000', '-0.1722383648157119750976562500000', '-0.1094391644001007080078125000000', '-0.0499178692698478698730468750000', '-0.1461617946624755859375000000000', '0.0557875633239746093750000000000', '0.3779774308204650878906250000000', '0.1593432128429412841796875000000', '-0.0839695110917091369628906250000', '0.0956542566418647766113281250000', '0.2699199020862579345703125000000', '0.1387251764535903930664062500000', '0.0194945782423019409179687500000', '0.1726024448871612548828125000000', '0.2670589387416839599609375000000', '0.1119025498628616333007812500000', '-0.2382928878068923950195312500000', '-0.4959066510200500488281250000000', '-0.4409902095794677734375000000000', '-0.2999814748764038085937500000000', '-0.2204320728778839111328125000000', '-0.1481457650661468505859375000000', '0.0011779717169702053070068359375', '-0.0351941064000129699707031250000', '-0.1169627308845520019531250000000', '-0.0700082331895828247070312500000', '0.1490210145711898803710937500000', '0.2596937716007232666015625000000', '0.3624096214771270751953125000000', '0.1760248243808746337890625000000', '-0.0348282493650913238525390625000', '-0.1517612785100936889648437500000', '0.0680947080254554748535156250000', '0.2809178829193115234375000000000', '0.3265209496021270751953125000000', '0.2609737813472747802734375000000', '0.1232770532369613647460937500000', '-0.1792162209749221801757812500000', '-0.3096379935741424560546875000000', '-0.2989199459552764892578125000000', '-0.2860110104084014892578125000000', '-0.3123598098754882812500000000000', '-0.1017115786671638488769531250000', '0.1316989511251449584960937500000', '0.0386605933308601379394531250000', '0.0602119788527488708496093750000', '0.0430094264447689056396484375000', '0.0560518950223922729492187500000', '0.2365786880254745483398437500000', '0.0914640873670578002929687500000', '0.1442787647247314453125000000000', '0.0406875833868980407714843750000', '0.0658551156520843505859375000000', '-0.1463092118501663208007812500000', '0.0028471737168729305267333984375', '0.0553632788360118865966796875000', '0.2023384720087051391601562500000', '-0.0347004011273384094238281250000', '0.1357440352439880371093750000000', '0.0873758047819137573242187500000', '0.2219530940055847167968750000000', '0.0469797141849994659423828125000', '-0.1046442314982414245605468750000', '-0.1760689467191696166992187500000', '-0.3375097811222076416015625000000', '-0.3917066156864166259765625000000', '-0.3247261643409729003906250000000', '-0.2040936052799224853515625000000', '-0.0695390030741691589355468750000', '-0.0520761720836162567138671875000', '0.1972184777259826660156250000000', '0.0679500922560691833496093750000', '0.0656818076968193054199218750000', '0.0040829321369528770446777343750', '-0.1476567387580871582031250000000', '-0.0276016909629106521606445312500'], ['0.1848365664482116699218750000000', '-0.0538880042731761932373046875000', '-0.2618410587310791015625000000000', '-0.0283699389547109603881835937500', '-0.1241881698369979858398437500000', '-0.3334303200244903564453125000000', '-0.4685113131999969482421875000000', '-0.5857775807380676269531250000000', '-0.6122215986251831054687500000000', '-0.6672649979591369628906250000000', '-0.1568364500999450683593750000000', '0.0882362723350524902343750000000', '0.3300786912441253662109375000000', '0.1500098258256912231445312500000', '0.4844872653484344482421875000000', '0.4992770850658416748046875000000', '0.4675579667091369628906250000000', '0.4082725346088409423828125000000', '0.2840475440025329589843750000000', '0.2387032359838485717773437500000', '0.2907942235469818115234375000000', '0.1404132395982742309570312500000', '0.1776131689548492431640625000000', '0.0408356711268424987792968750000', '-0.0258176196366548538208007812500', '-0.1115647777915000915527343750000', '-0.0606959946453571319580078125000', '-0.1919074505567550659179687500000', '-0.2277355343103408813476562500000', '-0.3954845964908599853515625000000', '-0.3256471753120422363281250000000', '-0.5505747199058532714843750000000', '-0.4819263219833374023437500000000', '-0.6409598588943481445312500000000', '-0.5824244618415832519531250000000', '-0.5662634372711181640625000000000', '-0.4443029463291168212890625000000', '-0.5211216807365417480468750000000', '-0.2793311476707458496093750000000', '-0.1059865802526473999023437500000', '0.0536823533475399017333984375000', '0.0578165762126445770263671875000', '0.1851472705602645874023437500000', '0.2568553090095520019531250000000', '0.1195738464593887329101562500000', '0.0252894982695579528808593750000', '0.1721552908420562744140625000000', '0.2235048711299896240234375000000', '0.1694116592407226562500000000000', '0.1671504676342010498046875000000', '0.2229284048080444335937500000000', '0.1361221969127655029296875000000', '0.1625126153230667114257812500000', '0.2035596072673797607421875000000', '0.1477771699428558349609375000000', '-0.0645720884203910827636718750000', '0.1889127939939498901367187500000', '0.1665342301130294799804687500000', '0.2135343104600906372070312500000', '0.2617117166519165039062500000000', '0.1905046552419662475585937500000', '0.4044817388057708740234375000000', '0.3711112737655639648437500000000', '0.3065786361694335937500000000000', '-0.0873863250017166137695312500000', '-0.1636068373918533325195312500000', '0.0328686945140361785888671875000', '-0.0341826640069484710693359375000', '-0.1264456510543823242187500000000', '-0.2757008671760559082031250000000', '-0.2257638424634933471679687500000', '-0.1428764760494232177734375000000', '0.1450295597314834594726562500000', '0.2915048301219940185546875000000', '0.4645184576511383056640625000000', '0.1457637250423431396484375000000', '-0.1278911679983139038085937500000', '-0.2209393382072448730468750000000', '-0.0905984863638877868652343750000', '-0.1933677196502685546875000000000', '-0.1738968789577484130859375000000', '-0.3067346513271331787109375000000', '-0.0829318240284919738769531250000', '0.1146770417690277099609375000000', '-0.0128087373450398445129394531250', '-0.1739587336778640747070312500000', '-0.0417120009660720825195312500000', '0.1127128973603248596191406250000', '0.2531539797782897949218750000000', '0.2960826754570007324218750000000', '0.0681432783603668212890625000000', '-0.2466329485177993774414062500000', '0.1045319959521293640136718750000', '0.2544160783290863037109375000000', '-0.0422280989587306976318359375000', '-0.5037170648574829101562500000000', '-0.1919310986995697021484375000000', '-0.4924672842025756835937500000000', '-0.4768665730953216552734375000000', '-0.0181616786867380142211914062500', '0.2011250257492065429687500000000', '0.2792752981185913085937500000000', '0.3094010651111602783203125000000', '0.0843883752822875976562500000000', '-0.1379758864641189575195312500000', '0.0686422288417816162109375000000', '-0.1099677458405494689941406250000', '-0.1953861266374588012695312500000', '-0.0743044987320899963378906250000', '0.0893489569425582885742187500000', '-0.1408993005752563476562500000000', '-0.1932384967803955078125000000000', '-0.0825588554143905639648437500000', '-0.1516035795211791992187500000000', '-0.3045212030410766601562500000000', '-0.3142292797565460205078125000000', '-0.2744912207126617431640625000000', '-0.1634778082370758056640625000000', '-0.2064391374588012695312500000000', '0.1247500926256179809570312500000', '-0.0124230524525046348571777343750', '-0.1310920268297195434570312500000', '-0.0046591474674642086029052734375', '-0.3083703815937042236328125000000', '-0.4240721166133880615234375000000', '-0.1354839354753494262695312500000', '0.0740408822894096374511718750000', '0.0938168317079544067382812500000', '0.0660258978605270385742187500000', '0.2294166833162307739257812500000', '0.5588669180870056152343750000000', '0.2394193857908248901367187500000', '-0.0669890046119689941406250000000', '0.2490213513374328613281250000000', '0.2071020305156707763671875000000', '-0.1351978033781051635742187500000', '-0.2714860439300537109375000000000', '-0.3357719779014587402343750000000', '-0.2001337856054306030273437500000', '-0.1865627914667129516601562500000', '-0.0508323870599269866943359375000', '-0.0286098159849643707275390625000', '0.0545540638267993927001953125000', '0.1446792781352996826171875000000', '0.0173315219581127166748046875000', '-0.0830609127879142761230468750000', '-0.1199818253517150878906250000000', '0.0417630486190319061279296875000', '0.2104734182357788085937500000000', '0.4465775787830352783203125000000', '0.4068748950958251953125000000000', '0.2643865346908569335937500000000', '0.5991935729980468750000000000000', '0.3462416231632232666015625000000', '0.3829778134822845458984375000000', '0.2642740905284881591796875000000', '-0.0736021250486373901367187500000', '-0.2601098716259002685546875000000', '-0.4807569384574890136718750000000', '-0.4236878156661987304687500000000', '-0.5100885033607482910156250000000', '-0.6032097935676574707031250000000', '-0.5488694906234741210937500000000', '-0.1599531173706054687500000000000', '-0.1352727413177490234375000000000', '0.0164880976080894470214843750000', '0.0505016855895519256591796875000', '0.1027286201715469360351562500000', '0.1245353817939758300781250000000', '0.1484116166830062866210937500000', '0.1854797452688217163085937500000', '0.0042533599771559238433837890625', '0.0686602294445037841796875000000', '0.0984992161393165588378906250000', '-0.0059256614185869693756103515625', '0.0423583760857582092285156250000', '0.3536275625228881835937500000000', '0.3064080178737640380859375000000', '0.0547201260924339294433593750000', '0.1481155455112457275390625000000', '0.2392031997442245483398437500000', '0.1196507066488265991210937500000', '0.0433881767094135284423828125000', '0.1474230140447616577148437500000', '0.0922460779547691345214843750000', '-0.0745847523212432861328125000000', '-0.3072625100612640380859375000000'], ['0.5805456042289733886718750000000', '-0.0072276536375284194946289062500', '-0.5873821377754211425781250000000', '0.0380069017410278320312500000000', '0.3932102322578430175781250000000', '0.3002691864967346191406250000000', '0.0042338101193308830261230468750', '-0.2994330525398254394531250000000', '-0.5239450335502624511718750000000', '0.1093574687838554382324218750000', '0.5344836115837097167968750000000', '0.5162563323974609375000000000000', '0.1850024312734603881835937500000', '-0.0237828604876995086669921875000', '-0.1319794952869415283203125000000', '0.0322914570569992065429687500000', '0.0370744355022907257080078125000', '-0.0422296635806560516357421875000', '-0.0613070875406265258789062500000', '-0.1283923536539077758789062500000', '-0.0165101811289787292480468750000', '-0.0843795165419578552246093750000', '-0.1278958469629287719726562500000', '0.0565673746168613433837890625000', '-0.0584325082600116729736328125000', '-0.0470149405300617218017578125000', '-0.0371774509549140930175781250000', '-0.0776794627308845520019531250000', '-0.1076113209128379821777343750000', '-0.0353407822549343109130859375000', '-0.0588016994297504425048828125000', '-0.0186965093016624450683593750000', '-0.0779313445091247558593750000000', '-0.0097723556682467460632324218750', '-0.1231982409954071044921875000000', '0.0200560577213764190673828125000', '-0.1231213212013244628906250000000', '0.1025121510028839111328125000000', '0.1006790027022361755371093750000', '0.2581684589385986328125000000000', '0.2892875671386718750000000000000', '0.1825440675020217895507812500000', 